{"learner":{"attributes":{"scikit_learn":"{\"_estimator_type\": \"classifier\"}"},"feature_names":["arp.opcode","arp.hw.size","icmp.checksum","icmp.seq_le","icmp.transmit_timestamp","icmp.unused","http.content_length","http.response","http.tls_port","tcp.ack","tcp.ack_raw","tcp.checksum","tcp.connection.fin","tcp.connection.rst","tcp.connection.syn","tcp.connection.synack","tcp.dstport","tcp.flags","tcp.flags.ack","tcp.len","tcp.seq","udp.port","udp.stream","udp.time_delta","dns.qry.name","dns.qry.qu","dns.qry.type","dns.retransmission","dns.retransmit_request","dns.retransmit_request_in","mqtt.conflag.cleansess","mqtt.conflags","mqtt.hdrflags","mqtt.len","mqtt.msg_decoded_as","mqtt.msgtype","mqtt.proto_len","mqtt.topic_len","mqtt.ver","mbtcp.len","mbtcp.trans_id","mbtcp.unit_id"],"feature_types":["float","float","float","float","float","float","float","float","float","float","float","float","float","float","float","float","float","float","float","float","float","float","float","float","float","float","float","float","float","float","float","float","float","float","float","float","float","float","float","float","float","float"],"gradient_booster":{"model":{"cats":{"enc":[],"feature_segments":[],"sorted_idx":[]},"gbtree_model_param":{"num_parallel_tree":"1","num_trees":"100"},"iteration_indptr":[0,1,2,3,4,5,6,7,8,9,10,11,12,13,14,15,16,17,18,19,20,21,22,23,24,25,26,27,28,29,30,31,32,33,34,35,36,37,38,39,40,41,42,43,44,45,46,47,48,49,50,51,52,53,54,55,56,57,58,59,60,61,62,63,64,65,66,67,68,69,70,71,72,73,74,75,76,77,78,79,80,81,82,83,84,85,86,87,88,89,90,91,92,93,94,95,96,97,98,99,100],"tree_info":[0,0,0,0,0,0,0,0,0,0,0,0,0,0,0,0,0,0,0,0,0,0,0,0,0,0,0,0,0,0,0,0,0,0,0,0,0,0,0,0,0,0,0,0,0,0,0,0,0,0,0,0,0,0,0,0,0,0,0,0,0,0,0,0,0,0,0,0,0,0,0,0,0,0,0,0,0,0,0,0,0,0,0,0,0,0,0,0,0,0,0,0,0,0,0,0,0,0,0,0],"trees":[{"base_weights":[-2.899422E-8,1.9565445E0,-1.0477191E0,1.9638648E0,-5.9366757E-1,-1.5873911E0,2.4356228E-1,1.9751089E0,8.1646985E-1,-1.703668E0,5.995715E-1,1.9086229E0,-1.9620191E0,1.978459E0,7.216549E-1,1.1905002E-1,4.835849E-1,-1.3014123E0,-1.9996597E0,-2.5548917E-1,1.9975808E0,5.932765E-1,-1.9913173E0,1.9637266E0,5.9992653E-1,-5.8628577E-1,5.935192E-1,-1.5604486E0,5.996998E-1,-5.9998393E-1,4.36686E-1,1.9109766E0,-5.9828454E-1,5.999404E-1,1.811839E0,-1.9962424E0,5.617992E-1,5.77241E-1,5.999612E-1,-2.9809436E-1,-5.8088404E-1,5.9771323E-1,2.1441661E-1,5.95084E-1,-5.3513515E-1,-5.9947824E-1,5.144847E-1],"categories":[],"categories_nodes":[],"categories_segments":[],"categories_sizes":[],"default_left":[0,0,0,0,0,0,0,0,0,0,0,0,0,0,0,0,0,0,0,0,0,0,0,0,0,0,0,0,0,0,0,0,0,0,0,0,0,0,0,0,0,0,0,0,0,0,0],"id":0,"left_children":[1,3,5,7,-1,9,11,13,15,17,-1,19,21,23,25,-1,-1,27,29,31,33,-1,35,37,-1,-1,-1,39,-1,-1,-1,41,-1,-1,43,45,-1,-1,-1,-1,-1,-1,-1,-1,-1,-1,-1],"loss_changes":[2.9839294E5,1.4663594E3,6.606311E4,6.520781E2,0E0,2.788061E4,1.0262207E5,2.093125E2,1.6407639E2,7.7077812E3,0E0,3.0659336E3,1.3914219E3,1.178125E1,4.589809E2,0E0,0E0,2.347454E4,3.9875E1,2.3754421E3,2.6835938E0,0E0,2.3082812E2,3.85625E1,0E0,0E0,0E0,5.4209414E3,0E0,0E0,0E0,2.592163E1,0E0,0E0,1.21707825E2,9.2703125E1,0E0,0E0,0E0,0E0,0E0,0E0,0E0,0E0,0E0,0E0,0E0],"parents":[2147483647,0,0,1,1,2,2,3,3,5,5,6,6,7,7,8,8,9,9,11,11,12,12,13,13,14,14,17,17,18,18,19,19,20,20,22,22,23,23,27,27,31,31,34,34,35,35],"right_children":[2,4,6,8,-1,10,12,14,16,18,-1,20,22,24,26,-1,-1,28,30,32,34,-1,36,38,-1,-1,-1,40,-1,-1,-1,42,-1,-1,44,46,-1,-1,-1,-1,-1,-1,-1,-1,-1,-1,-1],"split_conditions":[1.883E3,5.3E1,7.1E1,1E0,-5.9366757E-1,8.7E1,5.1855E4,5.02E2,2E0,5E0,5.995715E-1,6.285E3,2.477E3,8E1,1E0,1.1905002E-1,4.835849E-1,1E0,4.4E1,1.11812E5,6.0944E4,5.932765E-1,1E0,2.9E1,5.9992653E-1,-5.8628577E-1,5.935192E-1,1E0,5.996998E-1,-5.9998393E-1,4.36686E-1,5.9E3,-5.9828454E-1,5.999404E-1,7.62E2,1.448E3,5.617992E-1,5.77241E-1,5.999612E-1,-2.9809436E-1,-5.8088404E-1,5.9771323E-1,2.1441661E-1,5.95084E-1,-5.3513515E-1,-5.9947824E-1,5.144847E-1],"split_indices":[16,21,9,0,0,20,20,16,0,20,0,16,9,16,13,0,0,13,19,9,16,0,6,3,0,0,0,20,0,0,0,16,0,0,9,19,0,0,0,0,0,0,0,0,0,0,0],"split_type":[0,0,0,0,0,0,0,0,0,0,0,0,0,0,0,0,0,0,0,0,0,0,0,0,0,0,0,0,0,0,0,0,0,0,0,0,0,0,0,0,0,0,0,0,0,0,0],"sum_hessian":[1.45562E5,5.076358E4,9.479842E4,5.066983E4,9.375E1,6.68565E4,2.794192E4,5.017739E4,4.9243906E2,6.4757234E4,2.099265E3,1.592203E4,1.2019891E4,5.004306E4,1.3433122E2,3.2335806E2,1.6908101E2,2.745331E4,3.7303926E4,6.285752E2,1.5293455E4,8.823884E1,1.1931652E4,2.963507E4,2.0407986E4,4.275E1,9.1581215E1,2.5455904E4,1.9974064E3,3.730125E4,2.6739042E0,2.7982516E2,3.4875E2,1.5103129E4,1.9032549E2,1.1916945E4,1.4706473E1,1.4169209E4,1.5465861E4,1.0150828E4,1.5305075E4,2.6137415E2,1.8451044E1,1.8207549E2,8.25E0,1.191093E4,6.0162845E0],"tree_param":{"num_deleted":"0","num_feature":"42","num_nodes":"47","size_leaf_vector":"1"}},{"base_weights":[4.909525E-4,1.5109836E0,-8.0371875E-1,1.5166473E0,-4.6033368E-1,-1.2137353E0,1.8866037E-1,1.526352E0,5.887102E-1,-1.3022205E0,1.5477209E0,1.4778543E0,-1.5189805E0,1.5289434E0,5.5711526E-1,8.378239E-2,3.623755E-1,-9.767529E-1,-1.5485363E0,4.6447214E-1,1.5289892E-1,-1.9706288E-1,1.5469012E0,4.6006796E-1,-1.5417335E0,1.5158017E0,4.680406E-1,-4.553244E-1,4.6023285E-1,-1.1690322E0,4.644389E-1,-4.6463254E-1,3.5475367E-1,1.4732553E0,-4.6347472E-1,4.6459797E-1,1.3996223E0,-1.5456146E0,4.388006E-1,4.4122565E-1,4.6458313E-1,-4.866351E-1,-2.4486998E-1,4.580068E-1,3.2907035E-2,4.6089485E-1,-4.2091626E-1,-4.6422985E-1,4.7615927E-1],"categories":[],"categories_nodes":[],"categories_segments":[],"categories_sizes":[],"default_left":[0,0,0,0,0,0,0,0,0,0,0,0,0,0,0,0,0,0,0,0,0,0,0,0,0,0,0,0,0,0,0,0,0,0,0,0,0,0,0,0,0,0,0,0,0,0,0,0,0],"id":1,"left_children":[1,3,5,7,-1,9,11,13,15,17,19,21,23,25,27,-1,-1,29,31,-1,-1,33,35,-1,37,39,-1,-1,-1,41,-1,-1,-1,43,-1,-1,45,47,-1,-1,-1,-1,-1,-1,-1,-1,-1,-1,-1],"loss_changes":[1.6283681E5,8.0564844E2,3.559343E4,4.1775E2,0E0,1.5127328E4,5.6307438E4,1.1469531E2,9.216649E1,4.806914E3,2.475586E-1,1.6857715E3,7.665703E2,1.6445312E1,2.5418695E2,0E0,0E0,1.2547152E4,2.4078125E1,0E0,0E0,1.3033411E3,1.4609375E0,0E0,1.2961133E2,4.5484375E1,0E0,0E0,0E0,3.837082E3,0E0,0E0,0E0,1.8673828E1,0E0,0E0,6.940958E1,6.45918E1,0E0,0E0,0E0,0E0,0E0,0E0,0E0,0E0,0E0,0E0,0E0],"parents":[2147483647,0,0,1,1,2,2,3,3,5,5,6,6,7,7,8,8,9,9,10,10,11,11,12,12,13,13,14,14,17,17,18,18,21,21,22,22,24,24,25,25,29,29,33,33,36,36,37,37],"right_children":[2,4,6,8,-1,10,12,14,16,18,20,22,24,26,28,-1,-1,30,32,-1,-1,34,36,-1,38,40,-1,-1,-1,42,-1,-1,-1,44,-1,-1,46,48,-1,-1,-1,-1,-1,-1,-1,-1,-1,-1,-1],"split_conditions":[1.883E3,5.3E1,7.1E1,1E0,-4.6033368E-1,8.7E1,5.1855E4,5.02E2,2E0,5E0,6.0974E4,6.285E3,2.477E3,5.3E1,1E0,8.378239E-2,3.623755E-1,1E0,4.4E1,4.6447214E-1,1.5289892E-1,1.11812E5,6.0944E4,4.6006796E-1,1E0,2E0,4.680406E-1,-4.553244E-1,4.6023285E-1,2.015E3,4.644389E-1,-4.6463254E-1,3.5475367E-1,1.759E3,-4.6347472E-1,4.6459797E-1,7.62E2,2.3833528E9,4.388006E-1,4.4122565E-1,4.6458313E-1,-4.866351E-1,-2.4486998E-1,4.580068E-1,3.2907035E-2,4.6089485E-1,-4.2091626E-1,-4.6422985E-1,4.7615927E-1],"split_indices":[16,21,9,0,0,20,20,16,0,20,16,16,9,22,13,0,0,13,19,0,0,9,16,0,6,17,0,0,0,16,0,0,0,20,0,0,9,10,0,0,0,0,0,0,0,0,0,0,0],"split_type":[0,0,0,0,0,0,0,0,0,0,0,0,0,0,0,0,0,0,0,0,0,0,0,0,0,0,0,0,0,0,0,0,0,0,0,0,0,0,0,0,0,0,0,0,0,0,0,0,0],"sum_hessian":[1.3404733E5,4.6572496E4,8.7474836E4,4.6486543E4,8.595171E1,6.1899777E4,2.5575062E4,4.6004758E4,4.8178384E2,5.997842E4,1.9213544E3,1.4573126E4,1.1001936E4,4.5881516E4,1.2324394E2,3.2221503E2,1.5956882E2,2.583996E4,3.413846E4,1.919902E3,1.4524597E0,5.769062E2,1.399622E4,8.0908104E1,1.0921027E4,3.2315834E4,1.3565682E4,3.927702E1,8.396692E1,2.40119E4,1.8280602E3,3.413591E4,2.550374E0,2.5759283E2,3.1931332E2,1.3821672E4,1.7454832E2,1.0907423E4,1.3604485E1,1.3636869E4,1.8678965E4,1.0510332E4,1.3501568E4,2.4776407E2,9.828768E0,1.6686188E2,7.68645E0,1.0901602E4,5.8210673E0],"tree_param":{"num_deleted":"0","num_feature":"42","num_nodes":"49","size_leaf_vector":"1"}},{"base_weights":[1.8358917E-3,1.3035913E0,-6.810937E-1,1.3084832E0,-3.990104E-1,-1.0204756E0,1.6380872E-1,1.3189316E0,4.370849E-1,-1.0940537E0,1.3437033E0,1.2775937E0,-1.3253847E0,1.3211713E0,4.80805E-1,5.9197877E-2,2.915793E-1,-4.253715E-1,-1.2391936E0,4.0326536E-1,1.3011676E-1,-2.3013137E-1,1.3434299E0,3.978817E-1,-1.3427739E0,1.3072115E0,4.0562513E-1,-3.9391774E-1,3.9890712E-1,-4.367356E-1,1.20645605E-1,-1.3343232E0,-7.660652E-1,1.2589321E0,-4.0235963E-1,4.035215E-1,1.2056154E0,-1.344135E0,3.991092E-1,3.7612107E-1,4.033857E-1,8.0779994E-1,-3.1805372E-1,-3.6396316E-1,-4.0755966E-1,4.0324286E-1,-4.033855E-1,4.040403E-1,5.7988852E-2,4.0146205E-1,-3.3377925E-1,3.988793E-1,-4.0337622E-1],"categories":[],"categories_nodes":[],"categories_segments":[],"categories_sizes":[],"default_left":[0,0,0,0,0,0,0,0,0,0,0,0,0,0,0,0,0,0,0,0,0,0,0,0,0,0,0,0,0,0,0,0,0,0,0,0,0,0,0,0,0,0,0,0,0,0,0,0,0,0,0,0,0],"id":2,"left_children":[1,3,5,7,-1,9,11,13,15,17,19,21,23,25,27,-1,-1,29,31,-1,-1,33,35,-1,37,39,-1,-1,-1,-1,41,43,45,47,-1,-1,49,51,-1,-1,-1,-1,-1,-1,-1,-1,-1,-1,-1,-1,-1,-1,-1],"loss_changes":[1.0085329E5,5.046797E2,2.1336398E4,3.541797E2,0E0,9.23577E3,3.5370895E4,7.1640625E1,5.9200935E1,4.996078E3,1.6723633E-1,1.2113496E3,4.2253418E2,1.48046875E1,1.603995E2,0E0,0E0,5.1669043E3,1.9028945E3,0E0,0E0,8.476146E2,1.0234375E0,0E0,3.4771484E1,5.129297E1,0E0,0E0,0E0,0E0,1.823598E4,1.0161719E2,8.650217E3,2.0246155E1,0E0,0E0,4.6753113E1,1.274707E1,0E0,0E0,0E0,0E0,0E0,0E0,0E0,0E0,0E0,0E0,0E0,0E0,0E0,0E0,0E0],"parents":[2147483647,0,0,1,1,2,2,3,3,5,5,6,6,7,7,8,8,9,9,10,10,11,11,12,12,13,13,14,14,17,17,18,18,21,21,22,22,24,24,25,25,30,30,31,31,32,32,33,33,36,36,37,37],"right_children":[2,4,6,8,-1,10,12,14,16,18,20,22,24,26,28,-1,-1,30,32,-1,-1,34,36,-1,38,40,-1,-1,-1,-1,42,44,46,48,-1,-1,50,52,-1,-1,-1,-1,-1,-1,-1,-1,-1,-1,-1,-1,-1,-1,-1],"split_conditions":[1.883E3,5.3E1,7.1E1,1E0,-3.990104E-1,8.7E1,5.905E4,5.02E2,2E0,1E0,6.0974E4,6.285E3,2.477E3,2.9E1,1E0,5.9197877E-2,2.915793E-1,2.015E3,1E0,4.0326536E-1,1.3011676E-1,1.11812E5,6.0944E4,3.978817E-1,1.448E3,2E0,4.0562513E-1,-3.9391774E-1,3.9890712E-1,-4.367356E-1,4.9194E4,5E0,5E0,5.9E3,-4.0235963E-1,4.035215E-1,3.99E2,3.087667E8,3.991092E-1,3.7612107E-1,4.033857E-1,8.0779994E-1,-3.1805372E-1,-3.6396316E-1,-4.0755966E-1,4.0324286E-1,-4.033855E-1,4.040403E-1,5.7988852E-2,4.0146205E-1,-3.3377925E-1,3.988793E-1,-4.0337622E-1],"split_indices":[16,21,9,0,0,20,20,16,0,20,16,16,9,3,13,0,0,16,13,0,0,9,16,0,19,17,0,0,0,0,16,9,20,16,0,0,9,10,0,0,0,0,0,0,0,0,0,0,0,0,0,0,0],"split_type":[0,0,0,0,0,0,0,0,0,0,0,0,0,0,0,0,0,0,0,0,0,0,0,0,0,0,0,0,0,0,0,0,0,0,0,0,0,0,0,0,0,0,0,0,0,0,0,0,0,0,0,0,0],"sum_hessian":[1.1344284E5,3.9035344E4,7.44075E4,3.896347E4,7.187145E1,5.30843E4,2.1323203E4,3.8501312E4,4.621589E2,5.148259E4,1.6017087E3,1.2199327E4,9.123875E3,3.8398125E4,1.03186424E2,3.2005493E2,1.42104E2,9.182279E3,4.2300312E4,1.6003269E3,1.3819299E0,5.1030365E2,1.1689023E4,5.8953094E1,9.064922E3,2.648225E4,1.1915876E4,3.2969177E1,7.0217255E1,3.1798235E3,6.002456E3,3.521749E4,7.0828247E3,2.1800204E2,2.923016E2,1.1542763E4,1.4626047E2,9.060806E3,4.116123E0,1.0914388E4,1.5567861E4,1.888257E3,4.114199E3,5.8753857E3,2.9342102E4,1.523759E3,5.5590654E3,2.0115189E2,1.6850153E1,1.3874747E2,7.512996E0,1.0356421E0,9.0597705E3],"tree_param":{"num_deleted":"0","num_feature":"42","num_nodes":"53","size_leaf_vector":"1"}},{"base_weights":[1.21026125E-4,1.1813446E0,-6.122741E-1,1.1857809E0,-3.6384332E-1,-9.100484E-1,1.4986089E-1,1.1980611E0,3.263993E-1,-9.747474E-1,1.2289902E0,1.1681991E0,-1.2120185E0,1.2000933E0,4.3631253E-1,4.1836414E-2,2.3982699E-1,-3.625562E-1,-1.1239914E0,3.688748E-1,1.11188E-1,-2.0869951E-1,1.2288826E0,3.6261672E-1,-1.2280014E0,1.18301E0,3.7203115E-1,-3.5791773E-1,3.6372203E-1,-3.8829002E-1,6.301369E-2,-1.2083508E0,-7.007697E-1,1.1876802E0,-1.1966766E0,3.6914456E-1,1.0942231E0,-1.2293419E0,3.4176463E-1,3.358068E-1,3.6902106E-1,5.222714E-1,-2.5292587E-1,-3.2334703E-1,-3.7048894E-1,3.688553E-1,-3.6903244E-1,3.6905754E-1,9.022038E-2,-3.723303E-1,3.2746696E-1,3.644554E-1,-3.256743E-1,3.4011847E-1,-3.6894998E-1],"categories":[],"categories_nodes":[],"categories_segments":[],"categories_sizes":[],"default_left":[0,0,0,0,0,0,0,0,0,0,0,0,0,0,0,0,0,0,0,0,0,0,0,0,0,0,0,0,0,0,0,0,0,0,0,0,0,0,0,0,0,0,0,0,0,0,0,0,0,0,0,0,0,0,0],"id":3,"left_children":[1,3,5,7,-1,9,11,13,15,17,19,21,23,25,27,-1,-1,29,31,-1,-1,33,35,-1,37,39,-1,-1,-1,-1,41,43,45,47,49,-1,51,53,-1,-1,-1,-1,-1,-1,-1,-1,-1,-1,-1,-1,-1,-1,-1,-1,-1],"loss_changes":[6.656643E4,3.3514453E2,1.3753621E4,3.3057812E2,0E0,6.0319805E3,2.3615146E4,4.7339844E1,3.908053E1,3.864211E3,1.9506836E-1,8.1430664E2,2.833496E2,1.9613281E1,1.0746375E2,0E0,0E0,3.2880747E3,1.2133008E3,0E0,0E0,5.699712E2,6.621094E-1,0E0,2.4367188E1,6.3421875E1,0E0,0E0,0E0,0E0,8.656973E3,9.716016E1,5.778973E3,6.087616E0,2.5939545E1,0E0,3.2493713E1,9.793945E0,0E0,0E0,0E0,0E0,0E0,0E0,0E0,0E0,0E0,0E0,0E0,0E0,0E0,0E0,0E0,0E0,0E0],"parents":[2147483647,0,0,1,1,2,2,3,3,5,5,6,6,7,7,8,8,9,9,10,10,11,11,12,12,13,13,14,14,17,17,18,18,21,21,22,22,24,24,25,25,30,30,31,31,32,32,33,33,34,34,36,36,37,37],"right_children":[2,4,6,8,-1,10,12,14,16,18,20,22,24,26,28,-1,-1,30,32,-1,-1,34,36,-1,38,40,-1,-1,-1,-1,42,44,46,48,50,-1,52,54,-1,-1,-1,-1,-1,-1,-1,-1,-1,-1,-1,-1,-1,-1,-1,-1,-1],"split_conditions":[1.883E3,5.3E1,7.1E1,1E0,-3.6384332E-1,8.7E1,5.905E4,5.02E2,2E0,1E0,6.0974E4,6.285E3,2.477E3,5.3E1,1E0,4.1836414E-2,2.3982699E-1,2.015E3,1E0,3.688748E-1,1.11188E-1,1.988E3,6.0944E4,3.6261672E-1,1.448E3,2E0,3.7203115E-1,-3.5791773E-1,3.6372203E-1,-3.8829002E-1,4.9194E4,5E0,5E0,8.76E2,1.1586643E9,3.6914456E-1,7.62E2,3.087667E8,3.4176463E-1,3.358068E-1,3.6902106E-1,5.222714E-1,-2.5292587E-1,-3.2334703E-1,-3.7048894E-1,3.688553E-1,-3.6903244E-1,3.6905754E-1,9.022038E-2,-3.723303E-1,3.2746696E-1,3.644554E-1,-3.256743E-1,3.4011847E-1,-3.6894998E-1],"split_indices":[16,21,9,0,0,20,20,16,0,20,16,16,9,22,13,0,0,16,13,0,0,20,16,0,19,17,0,0,0,0,16,9,20,20,10,0,9,10,0,0,0,0,0,0,0,0,0,0,0,0,0,0,0,0,0],"split_type":[0,0,0,0,0,0,0,0,0,0,0,0,0,0,0,0,0,0,0,0,0,0,0,0,0,0,0,0,0,0,0,0,0,0,0,0,0,0,0,0,0,0,0,0,0,0,0,0,0,0,0,0,0,0,0],"sum_hessian":[9.201995E4,3.1418049E4,6.0601902E4,3.1360443E4,5.7605125E1,4.3576066E4,1.7025834E4,3.0918242E4,4.4220184E2,4.2297258E4,1.2788102E3,9.741684E3,7.2841504E3,3.0835404E4,8.283823E1,3.178705E2,1.24331314E2,8.291081E3,3.4006176E4,1.2774961E3,1.3140131E0,4.1111475E2,9.330568E3,4.728842E1,7.236862E3,2.1630412E4,9.204992E3,2.6553402E1,5.6284824E1,2.598932E3,5.6921494E3,2.835284E4,5.653336E3,1.702649E2,2.4084987E2,9.213009E3,1.1756018E2,7.2332466E3,3.6152496E0,9.204754E3,1.2425657E4,1.9956809E3,3.6964685E3,4.808712E3,2.3544129E4,1.2163752E3,4.436961E3,1.6210805E2,8.156849E0,2.367119E2,4.137971E0,1.11815125E2,5.7450557E0,1.024171E0,7.232222E3],"tree_param":{"num_deleted":"0","num_feature":"42","num_nodes":"55","size_leaf_vector":"1"}},{"base_weights":[1.6464687E-4,1.0985204E0,-5.655957E-1,1.113448E0,2.4293396E-1,-8.3505964E-1,1.4121333E-1,1.1176745E0,-3.411954E-1,2.9533273E-2,1.9737418E-1,-8.938322E-1,1.1575241E0,1.0985384E0,-1.1434795E0,1.1195649E0,4.0682462E-1,-3.1090835E-1,-1.0486048E0,3.4747827E-1,9.5259696E-2,-2.1086746E-1,1.1577802E0,3.3879948E-1,-1.1572065E0,1.0977628E0,3.5014442E-1,-3.3394778E-1,3.4104538E-1,-3.598057E-1,5.1085442E-2,-1.1252537E0,-6.6017073E-1,1.098612E0,-1.1233032E0,3.478183E-1,1.0210145E0,-3.4752905E-1,2.9695204E-1,3.0374902E-1,3.476636E-1,4.3629268E-1,-2.0082645E-1,-2.9173228E-1,-3.4723318E-1,3.4745815E-1,-3.4768614E-1,3.4477898E-1,6.9676265E-2,-3.499372E-1,2.9257417E-1,3.4454763E-1,-2.6761857E-1],"categories":[],"categories_nodes":[],"categories_segments":[],"categories_sizes":[],"default_left":[0,0,0,0,0,0,0,0,0,0,0,0,0,0,0,0,0,0,0,0,0,0,0,0,0,0,0,0,0,0,0,0,0,0,0,0,0,0,0,0,0,0,0,0,0,0,0,0,0,0,0,0,0],"id":4,"left_children":[1,3,5,7,9,11,13,15,-1,-1,-1,17,19,21,23,25,27,29,31,-1,-1,33,35,-1,37,39,-1,-1,-1,-1,41,43,45,47,49,-1,51,-1,-1,-1,-1,-1,-1,-1,-1,-1,-1,-1,-1,-1,-1,-1,-1],"loss_changes":[4.5249223E4,3.159121E2,9.153842E3,2.3273047E2,2.546627E1,4.0759473E3,1.6317163E4,3.2177734E1,0E0,0E0,0E0,3.0490898E3,2.4951172E-1,5.8995996E2,1.7805469E2,2.3847656E1,7.448034E1,2.281165E3,7.944297E2,0E0,0E0,3.954133E2,4.2285156E-1,0E0,1.594043E1,8.547266E1,0E0,0E0,0E0,0E0,5.0969746E3,1.0859375E2,3.9956714E3,5.7003326E0,1.8790176E1,0E0,2.375782E1,0E0,0E0,0E0,0E0,0E0,0E0,0E0,0E0,0E0,0E0,0E0,0E0,0E0,0E0,0E0,0E0],"parents":[2147483647,0,0,1,1,2,2,3,3,4,4,5,5,6,6,7,7,11,11,12,12,13,13,14,14,15,15,16,16,17,17,18,18,21,21,22,22,24,24,25,25,30,30,31,31,32,32,33,33,34,34,36,36],"right_children":[2,4,6,8,10,12,14,16,-1,-1,-1,18,20,22,24,26,28,30,32,-1,-1,34,36,-1,38,40,-1,-1,-1,-1,42,44,46,48,50,-1,52,-1,-1,-1,-1,-1,-1,-1,-1,-1,-1,-1,-1,-1,-1,-1,-1],"split_conditions":[1.883E3,1E0,7.1E1,5.3E1,2E0,8.7E1,6.2176E4,5.02E2,-3.411954E-1,2.9533273E-2,1.9737418E-1,1E0,6.0974E4,6.285E3,2.477E3,2.9E1,1E0,2.015E3,1E0,3.4747827E-1,9.5259696E-2,1.988E3,6.0944E4,3.3879948E-1,1.448E3,2E0,3.5014442E-1,-3.3394778E-1,3.4104538E-1,-3.598057E-1,4.8526E4,5E0,5E0,8.76E2,1.1586643E9,3.478183E-1,3.99E2,-3.4752905E-1,2.9695204E-1,3.0374902E-1,3.476636E-1,4.3629268E-1,-2.0082645E-1,-2.9173228E-1,-3.4723318E-1,3.4745815E-1,-3.4768614E-1,3.4477898E-1,6.9676265E-2,-3.499372E-1,2.9257417E-1,3.4454763E-1,-2.6761857E-1],"split_indices":[16,0,9,21,0,20,20,16,0,0,0,20,16,16,9,3,13,16,13,0,0,20,16,0,19,17,0,0,0,0,16,9,20,20,10,0,9,0,0,0,0,0,0,0,0,0,0,0,0,0,0,0,0],"split_type":[0,0,0,0,0,0,0,0,0,0,0,0,0,0,0,0,0,0,0,0,0,0,0,0,0,0,0,0,0,0,0,0,0,0,0,0,0,0,0,0,0,0,0,0,0,0,0,0,0,0,0,0,0],"sum_hessian":[7.281547E4,2.4755227E4,4.8060246E4,2.4330428E4,4.247988E2,3.4794863E4,1.3265381E4,2.4285328E4,4.509914E1,3.1600714E2,1.0879166E2,3.3798508E4,9.963574E2,7.601244E3,5.6641367E3,2.4220344E4,6.4984436E1,7.0917373E3,2.670677E4,9.951058E2,1.2516407E0,3.2890796E2,7.272336E3,3.3516457E1,5.63062E3,1.6626396E4,7.5939473E3,2.0913563E1,4.4070873E1,2.0523435E3,5.039394E3,2.2303729E4,4.4030396E3,1.349832E2,1.9392477E2,7.1801187E3,9.221708E1,5.6278735E3,2.7466636E0,6.949016E3,9.677381E3,1.7093434E3,3.3300505E3,3.88625E3,1.8417479E4,9.4750195E2,3.4555374E3,1.27218834E2,7.764361E0,1.9045251E2,3.4722607E0,8.683077E1,5.3863015E0],"tree_param":{"num_deleted":"0","num_feature":"42","num_nodes":"53","size_leaf_vector":"1"}},{"base_weights":[6.084546E-4,1.0356455E0,-5.3007966E-1,1.0542576E0,1.7955425E-1,-7.769814E-1,1.3551569E-1,1.058267E0,-3.25322E-1,2.0818066E-2,1.6068757E-1,-4.2593476E-1,-1.104855E0,1.053465E0,-1.0967046E0,1.0307192E0,3.3647436E-1,-4.7659808E-1,2.099993E0,-1.1137471E0,-1.08214E0,-1.9930685E-1,1.1107974E0,3.2241967E-1,-1.1099855E0,9.2982286E-1,1.1071318E0,-1.1301248E0,-1.2189733E-1,-1.1078957E0,-3.4232292E-1,2.236334E0,-3.333772E-1,3.332093E-1,-1.0297686E0,3.3374494E-1,9.674186E-1,-3.33381E-1,2.6562378E-1,-6.6379184E-1,3.3550537E-1,3.3359143E-1,1.1556343E-1,-3.39745E-1,2.7687883E-1,3.5976845E-1,-2.1931428E-1,-3.3449394E-1,-2.857094E-1,3.2886565E-1,-3.4461504E-1,3.2624304E-1,-2.7481523E-1],"categories":[],"categories_nodes":[],"categories_segments":[],"categories_sizes":[],"default_left":[0,0,0,0,0,0,0,0,0,0,0,0,0,0,0,0,0,0,0,0,0,0,0,0,0,0,0,0,0,0,0,0,0,0,0,0,0,0,0,0,0,0,0,0,0,0,0,0,0,0,0,0,0],"id":5,"left_children":[1,3,5,7,9,11,13,15,-1,-1,-1,17,19,21,23,25,-1,27,-1,29,31,33,35,-1,37,39,41,43,45,47,-1,-1,-1,-1,49,-1,51,-1,-1,-1,-1,-1,-1,-1,-1,-1,-1,-1,-1,-1,-1,-1,-1],"loss_changes":[3.1260158E4,3.071621E2,6.182701E3,1.6302539E2,1.6109892E1,3.158086E3,1.151638E4,3.171289E1,0E0,0E0,0E0,4.9899033E3,1.6601562E0,4.192954E2,1.265459E2,1.0030078E2,0E0,3.0517031E3,0E0,3.6035156E-1,1.0092505E3,2.7984915E2,2.7246094E-1,0E0,1.2058105E1,3.361855E3,2.5682617E1,2.3470703E1,6.8694526E3,8.200195E0,0E0,0E0,0E0,0E0,4.1039764E1,0E0,1.7391273E1,0E0,0E0,0E0,0E0,0E0,0E0,0E0,0E0,0E0,0E0,0E0,0E0,0E0,0E0,0E0,0E0],"parents":[2147483647,0,0,1,1,2,2,3,3,4,4,5,5,6,6,7,7,11,11,12,12,13,13,14,14,15,15,17,17,19,19,20,20,21,21,22,22,24,24,25,25,26,26,27,27,28,28,29,29,34,34,36,36],"right_children":[2,4,6,8,10,12,14,16,-1,-1,-1,18,20,22,24,26,-1,28,-1,30,32,34,36,-1,38,40,42,44,46,48,-1,-1,-1,-1,50,-1,52,-1,-1,-1,-1,-1,-1,-1,-1,-1,-1,-1,-1,-1,-1,-1,-1],"split_conditions":[1.883E3,1E0,7.1E1,5.3E1,2E0,5E0,6.2176E4,5.3E1,-3.25322E-1,2.0818066E-2,1.6068757E-1,2E0,3.5E1,6.285E3,2.477E3,2E0,3.3647436E-1,2.015E3,2.099993E0,5.605E4,2E0,5.9E3,6.0944E4,3.2241967E-1,1.448E3,1.4E1,5.02E2,1E0,4.9194E4,5.4465E4,-3.4232292E-1,2.236334E0,-3.333772E-1,3.332093E-1,1.22E2,3.3374494E-1,7.62E2,-3.33381E-1,2.6562378E-1,-6.6379184E-1,3.3550537E-1,3.3359143E-1,1.1556343E-1,-3.39745E-1,2.7687883E-1,3.5976845E-1,-2.1931428E-1,-3.3449394E-1,-2.857094E-1,3.2886565E-1,-3.4461504E-1,3.2624304E-1,-2.7481523E-1],"split_indices":[16,0,9,21,0,9,20,22,0,0,0,9,9,16,9,17,0,16,0,16,20,16,16,0,19,2,16,13,16,16,0,0,0,0,9,0,9,0,0,0,0,0,0,0,0,0,0,0,0,0,0,0,0],"split_type":[0,0,0,0,0,0,0,0,0,0,0,0,0,0,0,0,0,0,0,0,0,0,0,0,0,0,0,0,0,0,0,0,0,0,0,0,0,0,0,0,0,0,0,0,0,0,0,0,0,0,0,0,0],"sum_hessian":[5.690896E4,1.9288445E4,3.7620516E4,1.8877795E4,4.10652E2,2.7441104E4,1.0179411E4,1.8842975E4,3.4819595E1,3.1453616E2,9.611584E1,1.3253348E4,1.4187757E4,5.8337056E3,4.345706E3,1.3142133E4,5.7008413E3,1.3164469E4,8.887883E1,1.016174E4,4.0260166E3,2.5518456E2,5.578521E3,2.593179E1,4.3197744E3,5.669382E3,7.4727515E3,4.630573E3,8.5338955E3,8.403929E3,1.7578114E3,1.2818752E1,4.013198E3,9.887602E1,1.5630853E2,5.5070166E3,7.1504265E1,4.3174385E3,2.3360739E0,3.2026968E2,5.349112E3,7.4224536E3,5.0297855E1,4.625708E3,4.865326E0,2.6927937E3,5.8411016E3,8.031929E3,3.7199963E2,7.846703E0,1.4846184E2,6.761678E1,3.8874815E0],"tree_param":{"num_deleted":"0","num_feature":"42","num_nodes":"53","size_leaf_vector":"1"}},{"base_weights":[4.115332E-5,9.860531E-1,-5.029794E-1,1.0093952E0,1.3164304E-1,-7.289847E-1,1.3165651E-1,1.0132184E0,-3.1328797E-1,1.4654979E-2,1.2861903E-1,-3.899982E-1,-1.0700107E0,1.0227861E0,-1.0644492E0,9.749055E-1,1.0730821E0,-1.091802E0,-5.3084943E-2,-1.0382798E0,-3.239301E-1,-1.9157645E-1,1.0786041E0,3.0969328E-1,-1.0774839E0,8.686174E-1,3.2602113E-1,3.23965E-1,2.81825E-1,-3.2825813E-1,2.588377E-1,1.1891813E0,-5.6311697E-1,-1.0699104E0,5.0791484E-1,3.2201874E-1,-9.942476E-1,3.2412207E-1,9.245311E-1,-1.0788591E0,2.4005492E-1,-2.5972205E-1,3.253504E-1,-3.2202435E-1,3.205652E-1,3.4803027E-1,5.1845306E-1,-6.0045537E-2,-3.090819E-1,1.3201468E0,-3.2317382E-1,3.0289358E-1,-3.342108E-1,3.1922916E-1,-2.2406046E-1,-2.4338426E-1,-3.2411394E-1],"categories":[],"categories_nodes":[],"categories_segments":[],"categories_sizes":[],"default_left":[0,0,0,0,0,0,0,0,0,0,0,0,0,0,0,0,0,0,0,0,0,0,0,0,0,0,0,0,0,0,0,0,0,0,0,0,0,0,0,0,0,0,0,0,0,0,0,0,0,0,0,0,0,0,0,0,0],"id":6,"left_children":[1,3,5,7,9,11,13,15,-1,-1,-1,17,19,21,23,25,27,29,31,33,-1,35,37,-1,39,41,-1,-1,43,-1,-1,45,47,49,-1,-1,51,-1,53,55,-1,-1,-1,-1,-1,-1,-1,-1,-1,-1,-1,-1,-1,-1,-1,-1,-1],"loss_changes":[2.205391E4,2.9944238E2,4.2232695E3,1.1586328E2,9.832639E0,2.5095674E3,8.243424E3,3.2426758E1,0E0,0E0,0E0,2.5748901E3,2.2304688E0,3.0061377E2,9.135693E1,1.0496582E2,3.0292969E1,1.7457031E1,4.6632593E3,2.2394604E2,0E0,1.9967874E2,1.7822266E-1,0E0,9.338135E0,1.7132656E3,0E0,0E0,5.425145E1,0E0,0E0,3.1573486E1,8.845127E2,1.06763916E2,0E0,0E0,2.9975723E1,0E0,1.3843277E1,4.580078E-1,0E0,0E0,0E0,0E0,0E0,0E0,0E0,0E0,0E0,0E0,0E0,0E0,0E0,0E0,0E0,0E0,0E0],"parents":[2147483647,0,0,1,1,2,2,3,3,4,4,5,5,6,6,7,7,11,11,12,12,13,13,14,14,15,15,16,16,17,17,18,18,19,19,21,21,22,22,24,24,25,25,28,28,31,31,32,32,33,33,36,36,38,38,39,39],"right_children":[2,4,6,8,10,12,14,16,-1,-1,-1,18,20,22,24,26,28,30,32,34,-1,36,38,-1,40,42,-1,-1,44,-1,-1,46,48,50,-1,-1,52,-1,54,56,-1,-1,-1,-1,-1,-1,-1,-1,-1,-1,-1,-1,-1,-1,-1,-1,-1],"split_conditions":[1.883E3,1E0,7.1E1,5.3E1,2E0,5E0,6.2176E4,2E0,-3.1328797E-1,1.4654979E-2,1.2861903E-1,2.015E3,2E0,6.285E3,2.477E3,5.3E1,5.02E2,1E0,4.8526E4,3.5E1,-3.239301E-1,5.9E3,6.0944E4,3.0969328E-1,1.448E3,1.4E1,3.2602113E-1,3.23965E-1,1E0,-3.2825813E-1,2.588377E-1,2E0,6E0,1.5E1,5.0791484E-1,3.2201874E-1,1.22E2,3.2412207E-1,4.86E2,5.797E3,2.4005492E-1,-2.5972205E-1,3.253504E-1,-3.2202435E-1,3.205652E-1,3.4803027E-1,5.1845306E-1,-6.0045537E-2,-3.090819E-1,1.3201468E0,-3.2317382E-1,3.0289358E-1,-3.342108E-1,3.1922916E-1,-2.2406046E-1,-2.4338426E-1,-3.2411394E-1],"split_indices":[16,0,9,21,0,9,20,17,0,0,0,16,20,16,9,22,16,13,16,9,0,16,16,0,19,2,0,0,13,0,0,9,20,9,0,0,9,0,20,9,0,0,0,0,0,0,0,0,0,0,0,0,0,0,0,0,0],"split_type":[0,0,0,0,0,0,0,0,0,0,0,0,0,0,0,0,0,0,0,0,0,0,0,0,0,0,0,0,0,0,0,0,0,0,0,0,0,0,0,0,0,0,0,0,0,0,0,0,0,0,0,0,0,0,0,0,0],"sum_hessian":[4.446294E4,1.5020014E4,2.9442926E4,1.4620409E4,3.9960486E2,2.1711072E4,7.7318535E3,1.4593747E4,2.6661812E1,3.134235E2,8.618138E1,1.0889169E4,1.0821903E4,4.430879E3,3.3009744E3,8.909146E3,5.684601E3,3.5312314E3,7.3579375E3,2.5701958E3,8.251707E3,1.9460765E2,4.2362715E3,1.9910776E1,3.2810637E3,4.5722803E3,4.336866E3,5.635794E3,4.8807148E1,3.5273555E3,3.8760889E0,2.1412478E3,5.21669E3,2.5413733E3,2.8822456E1,7.5416885E1,1.19190765E2,4.181334E3,5.493731E1,3.2790874E3,1.9761634E0,5.057998E2,4.0664805E3,1.7792606E1,3.101454E1,2.0346259E3,1.0662189E2,2.9365295E3,2.2801604E3,2.60137E0,2.538772E3,6.3040557E0,1.1288671E2,5.1038788E1,3.8985202E0,2.1550716E1,3.2575369E3],"tree_param":{"num_deleted":"0","num_feature":"42","num_nodes":"57","size_leaf_vector":"1"}},{"base_weights":[1.4790191E-3,9.426992E-1,-4.7494557E-1,9.7217935E-1,9.575884E-2,-1.0606619E0,-2.4044217E-1,9.758639E-1,-3.0337724E-1,1.030515E-2,1.0094827E-1,-3.185684E-1,2.5294697E-1,6.95853E-1,-5.824717E-1,9.2950946E-1,1.0505233E0,1.064822E0,-3.1705683E-1,-6.4569837E-1,3.1771076E-1,8.066644E-1,3.1820592E-1,3.1720394E-1,2.6948896E-1,1.0852926E0,7.599766E-1,-3.1721926E-1,-9.3501455E-1,-1.4407367E-1,3.1888685E-1,-3.0680263E-1,3.093763E-1,3.2748502E-1,1.5890564E-1,5.8147546E-2,3.154953E-1,-1.5648815E-1,3.2049876E-1,-2.8487483E-1,3.528508E-1],"categories":[],"categories_nodes":[],"categories_segments":[],"categories_sizes":[],"default_left":[0,0,0,0,0,0,0,0,0,0,0,0,0,0,0,0,0,0,0,0,0,0,0,0,0,0,0,0,0,0,0,0,0,0,0,0,0,0,0,0,0],"id":7,"left_children":[1,3,5,7,9,11,13,15,-1,-1,-1,-1,-1,17,19,21,23,25,-1,27,-1,29,-1,-1,31,33,35,37,39,-1,-1,-1,-1,-1,-1,-1,-1,-1,-1,-1,-1],"loss_changes":[1.5513866E4,2.9020508E2,3.1547139E3,8.309766E1,5.786416E0,1.6306152E1,5.253635E3,3.7836914E1,0E0,0E0,0E0,0E0,0E0,2.839809E3,1.2477341E3,1.1078467E2,2.2568848E1,2.1807129E1,0E0,1.0992944E3,0E0,1.1818652E3,0E0,0E0,3.8932907E1,1.135498E1,3.8031723E1,1.5355963E3,1.9031201E2,0E0,0E0,0E0,0E0,0E0,0E0,0E0,0E0,0E0,0E0,0E0,0E0],"parents":[2147483647,0,0,1,1,2,2,3,3,4,4,5,5,6,6,7,7,13,13,14,14,15,15,16,16,17,17,19,19,21,21,24,24,25,25,26,26,27,27,28,28],"right_children":[2,4,6,8,10,12,14,16,-1,-1,-1,-1,-1,18,20,22,24,26,-1,28,-1,30,-1,-1,32,34,36,38,40,-1,-1,-1,-1,-1,-1,-1,-1,-1,-1,-1,-1],"split_conditions":[1.883E3,1E0,2.015E3,5.3E1,2E0,1E0,4.9194E4,2E0,-3.0337724E-1,1.030515E-2,1.0094827E-1,-3.185684E-1,2.5294697E-1,2.095281E6,1E0,2.9E1,5.02E2,4.8526E4,-3.1705683E-1,5E0,3.1771076E-1,5.3E1,3.1820592E-1,3.1720394E-1,1E0,8.1348E5,7.1E1,3.5E1,1.448E3,-1.4407367E-1,3.1888685E-1,-3.0680263E-1,3.093763E-1,3.2748502E-1,1.5890564E-1,5.8147546E-2,3.154953E-1,-1.5648815E-1,3.2049876E-1,-2.8487483E-1,3.528508E-1],"split_indices":[16,0,16,21,0,13,16,17,0,0,0,0,0,9,7,3,16,16,0,20,0,22,0,0,13,9,9,9,19,0,0,0,0,0,0,0,0,0,0,0,0],"split_type":[0,0,0,0,0,0,0,0,0,0,0,0,0,0,0,0,0,0,0,0,0,0,0,0,0,0,0,0,0,0,0,0,0,0,0,0,0,0,0,0,0],"sum_hessian":[3.45947E4,1.1625832E4,2.296887E4,1.1234631E4,3.9120132E2,6.565864E3,1.6403004E4,1.1214307E4,2.0324291E1,3.1260318E2,7.859816E1,6.562057E3,3.8066914E0,4.388524E3,1.201448E4,6.9269536E3,4.2873525E3,3.625665E3,7.628591E2,1.1569462E4,4.4501904E2,3.5807695E3,3.346184E3,4.249871E3,3.7481426E1,3.3951194E3,2.3054564E2,5.4190103E3,6.150451E3,5.9454144E2,2.986228E3,1.3774152E1,2.3707272E1,3.3559558E3,3.9163376E1,7.8955124E1,1.5159052E2,4.7228755E3,6.961351E2,6.1088477E3,4.1603943E1],"tree_param":{"num_deleted":"0","num_feature":"42","num_nodes":"41","size_leaf_vector":"1"}},{"base_weights":[5.474546E-3,9.0018886E-1,-4.3519375E-1,9.372568E-1,6.916549E-2,-1.0436339E0,-2.107014E-1,9.4081706E-1,-2.9447633E-1,7.240114E-3,7.767493E-2,-3.1347737E-1,2.3703358E-1,6.738269E-1,-5.0556713E-1,8.8485825E-1,1.034291E0,1.0285709E0,-3.1217977E-1,-3.0102694E-1,-1.0086278E0,7.457856E-1,3.1319165E-1,3.1235605E-1,2.583374E-1,1.0547396E0,6.7321324E-1,-5.6200147E-1,3.166649E-1,-1.0312815E0,1.8123978E0,-9.2647016E-2,3.136678E-1,-2.937481E-1,2.9985642E-1,3.207832E-1,1.8521203E-1,4.164688E-2,3.1010377E-1,-5.4547362E-2,-3.030498E-1,-3.1555519E-1,-2.5804514E-1],"categories":[],"categories_nodes":[],"categories_segments":[],"categories_sizes":[],"default_left":[0,0,0,0,0,0,0,0,0,0,0,0,0,0,0,0,0,0,0,0,0,0,0,0,0,0,0,0,0,0,0,0,0,0,0,0,0,0,0,0,0,0,0],"id":8,"left_children":[1,3,5,7,9,11,13,15,-1,-1,-1,-1,-1,17,19,21,23,25,-1,27,29,31,-1,-1,33,35,37,39,-1,41,-1,-1,-1,-1,-1,-1,-1,-1,-1,-1,-1,-1,-1],"loss_changes":[1.0768247E4,2.7756543E2,2.4992458E3,5.9864746E1,3.2914286E0,1.2496582E1,3.4870242E3,4.41333E1,0E0,0E0,0E0,0E0,0E0,2.0340422E3,1.031395E3,1.1858496E2,1.6956299E1,2.504956E1,0E0,2.5247437E3,4.690432E2,9.113983E2,0E0,0E0,2.8207546E1,1.5734131E1,3.69888E1,1.0187118E3,0E0,9.265869E0,0E0,0E0,0E0,0E0,0E0,0E0,0E0,0E0,0E0,0E0,0E0,0E0,0E0],"parents":[2147483647,0,0,1,1,2,2,3,3,4,4,5,5,6,6,7,7,13,13,14,14,15,15,16,16,17,17,19,19,20,20,21,21,24,24,25,25,26,26,27,27,29,29],"right_children":[2,4,6,8,10,12,14,16,-1,-1,-1,-1,-1,18,20,22,24,26,-1,28,30,32,-1,-1,34,36,38,40,-1,42,-1,-1,-1,-1,-1,-1,-1,-1,-1,-1,-1,-1,-1],"split_conditions":[1.883E3,1E0,2.015E3,5.3E1,2E0,1E0,4.9194E4,2E0,-2.9447633E-1,7.240114E-3,7.767493E-2,-3.1347737E-1,2.3703358E-1,2.095281E6,6.0944E4,2.9E1,5.02E2,4.8526E4,-3.1217977E-1,7.1E1,1E0,5.3E1,3.1319165E-1,3.1235605E-1,1E0,1.48114E5,7.1E1,1.5E1,3.166649E-1,1E0,1.8123978E0,-9.2647016E-2,3.136678E-1,-2.937481E-1,2.9985642E-1,3.207832E-1,1.8521203E-1,4.164688E-2,3.1010377E-1,-5.4547362E-2,-3.030498E-1,-3.1555519E-1,-2.5804514E-1],"split_indices":[16,0,16,21,0,13,16,17,0,0,0,0,0,9,16,3,16,16,0,9,14,22,0,0,13,9,9,9,0,13,0,0,0,0,0,0,0,0,0,0,0,0,0],"split_type":[0,0,0,0,0,0,0,0,0,0,0,0,0,0,0,0,0,0,0,0,0,0,0,0,0,0,0,0,0,0,0,0,0,0,0,0,0,0,0,0,0,0,0],"sum_hessian":[2.730971E4,9.011697E3,1.8298012E4,8.6267705E3,3.8492694E2,4.930705E3,1.3367308E4,8.611303E3,1.5467854E1,3.120082E2,7.291874E1,4.9276675E3,3.037823E0,3.341701E3,1.0025606E4,5.3931313E3,3.2181716E3,2.7691223E3,5.725786E2,7.128725E3,2.8968816E3,2.880837E3,2.5122942E3,3.189485E3,2.8686495E1,2.5773572E3,1.9176532E2,5.9790728E3,1.149652E3,2.8884536E3,8.427767E0,6.3762634E2,2.2432107E3,1.0625254E1,1.8061241E1,2.4930452E3,8.4311844E1,7.780485E1,1.1396047E2,3.2356682E3,2.7434045E3,2.5739329E3,3.1452078E2],"tree_param":{"num_deleted":"0","num_feature":"42","num_nodes":"43","size_leaf_vector":"1"}},{"base_weights":[6.448275E-3,8.554658E-1,-4.0359646E-1,9.015918E-1,4.9658705E-2,-1.031342E0,-1.901001E-1,8.327003E-1,1.0223532E0,5.0833686E-3,5.868107E-2,-3.0981463E-1,2.2137271E-1,6.5285337E-1,-4.4838378E-1,6.733269E-1,3.0957285E-1,3.0881265E-1,2.4741043E-1,9.934978E-1,-3.0859238E-1,-2.5660878E-1,-9.7215736E-1,-2.1434142E-1,1.027352E0,-2.8159204E-1,2.9102904E-1,1.0270294E0,5.863292E-1,-4.7095907E-1,3.1248137E-1,-9.941636E-1,5.4913664E-1,-9.940282E-2,4.1595078E-1,3.099054E-1,-2.5487286E-1,3.146343E-1,1.4615838E-1,2.9676512E-2,3.058281E-1,-3.9746724E-2,-2.9331306E-1,-3.0777177E-1,-2.262411E-1],"categories":[],"categories_nodes":[],"categories_segments":[],"categories_sizes":[],"default_left":[0,0,0,0,0,0,0,0,0,0,0,0,0,0,0,0,0,0,0,0,0,0,0,0,0,0,0,0,0,0,0,0,0,0,0,0,0,0,0,0,0,0,0,0,0],"id":9,"left_children":[1,3,5,7,9,11,13,15,17,-1,-1,-1,-1,19,21,23,-1,-1,25,27,-1,29,31,33,35,-1,-1,37,39,41,-1,43,-1,-1,-1,-1,-1,-1,-1,-1,-1,-1,-1,-1,-1],"loss_changes":[7.507452E3,2.6099414E2,1.9486992E3,5.4412598E1,1.8172233E0,9.729492E0,2.3630918E3,1.337666E2,1.2852295E1,0E0,0E0,0E0,0E0,1.4591932E3,8.3422974E2,7.405206E2,0E0,0E0,2.0578745E1,2.830664E1,0E0,1.6930796E3,1.3912036E2,1.2641495E2,1.878894E1,0E0,0E0,2.2444336E1,3.4399796E1,8.954127E2,0E0,1.6060547E1,0E0,0E0,0E0,0E0,0E0,0E0,0E0,0E0,0E0,0E0,0E0,0E0,0E0],"parents":[2147483647,0,0,1,1,2,2,3,3,4,4,5,5,6,6,7,7,8,8,13,13,14,14,15,15,18,18,19,19,21,21,22,22,23,23,24,24,27,27,28,28,29,29,31,31],"right_children":[2,4,6,8,10,12,14,16,18,-1,-1,-1,-1,20,22,24,-1,-1,26,28,-1,30,32,34,36,-1,-1,38,40,42,-1,44,-1,-1,-1,-1,-1,-1,-1,-1,-1,-1,-1,-1,-1],"split_conditions":[1.883E3,1E0,2.015E3,2E0,2E0,1E0,4.9194E4,2.9E1,5.02E2,5.0833686E-3,5.868107E-2,-3.0981463E-1,2.2137271E-1,2.095281E6,6.0944E4,4.95E2,3.0957285E-1,3.0881265E-1,1E0,4.8526E4,-3.0859238E-1,7.1E1,1E0,1E0,1.5E1,-2.8159204E-1,2.9102904E-1,1.48114E5,7.1E1,1.5E1,3.1248137E-1,1E0,5.4913664E-1,-9.940282E-2,4.1595078E-1,3.099054E-1,-2.5487286E-1,3.146343E-1,1.4615838E-1,2.9676512E-2,3.058281E-1,-3.9746724E-2,-2.9331306E-1,-3.0777177E-1,-2.262411E-1],"split_indices":[16,0,16,17,0,13,16,3,16,0,0,0,0,9,16,22,0,0,13,16,0,9,14,19,21,0,0,9,9,9,0,13,0,0,0,0,0,0,0,0,0,0,0,0,0],"split_type":[0,0,0,0,0,0,0,0,0,0,0,0,0,0,0,0,0,0,0,0,0,0,0,0,0,0,0,0,0,0,0,0,0,0,0,0,0,0,0,0,0,0,0,0,0],"sum_hessian":[2.156277E4,7.0220947E3,1.4540674E4,6.641787E3,3.8030746E2,3.6892637E3,1.085141E4,4.234184E3,2.4076033E3,3.1158133E2,6.872614E1,3.6868179E3,2.4458287E0,2.5447268E3,8.306684E3,2.3547178E3,1.8794661E3,2.3856572E3,2.1946213E1,2.1163887E3,4.2833798E2,6.08149E3,2.2251936E3,6.714773E2,1.6832406E3,8.196139E0,1.3750074E1,1.9539523E3,1.6243646E2,5.2202095E3,8.612809E2,2.2084976E3,1.6695967E1,6.264824E2,4.4994865E1,1.6786229E3,4.617746E0,1.8773649E3,7.6587364E1,7.700432E1,8.543214E1,3.1305254E3,2.089684E3,1.9476564E3,2.608411E2],"tree_param":{"num_deleted":"0","num_feature":"42","num_nodes":"45","size_leaf_vector":"1"}},{"base_weights":[7.9076085E-3,8.0658716E-1,-3.6875796E-1,8.6307675E-1,3.547992E-2,-1.0223504E0,-1.6770074E-1,7.8211284E-1,1.013343E0,3.5674332E-3,4.3632474E-2,-3.0715075E-1,2.0600854E-1,6.3119215E-1,-3.8909864E-1,6.078559E-1,3.0692738E-1,3.061658E-1,2.3603739E-1,9.568135E-1,-3.058833E-1,-5.755653E-2,-7.489941E-1,-1.417739E-1,1.0179337E0,-2.6952764E-1,2.8219813E-1,9.9959534E-1,5.011626E-1,-1.8960874E-1,1.1575297E0,-8.337857E-1,3.0582812E-1,-6.643406E-2,3.7243432E-1,3.0715603E-1,-2.4134639E-1,3.094136E-1,1.11028306E-1,2.1070145E-2,3.0220428E-1,-9.3292184E-2,3.2116842E-1,3.564537E-1,3.094284E-1,-3.0913472E-1,-1.3014838E-1],"categories":[],"categories_nodes":[],"categories_segments":[],"categories_sizes":[],"default_left":[0,0,0,0,0,0,0,0,0,0,0,0,0,0,0,0,0,0,0,0,0,0,0,0,0,0,0,0,0,0,0,0,0,0,0,0,0,0,0,0,0,0,0,0,0,0,0],"id":10,"left_children":[1,3,5,7,9,11,13,15,17,-1,-1,-1,-1,19,21,23,-1,-1,25,27,-1,29,31,33,35,-1,-1,37,39,41,43,45,-1,-1,-1,-1,-1,-1,-1,-1,-1,-1,-1,-1,-1,-1,-1],"loss_changes":[5.1834033E3,2.4049414E2,1.5384114E3,6.1799805E1,9.785894E-1,7.694336E0,1.584165E3,1.3995813E2,9.835571E0,0E0,0E0,0E0,0E0,1.0457295E3,8.36694E2,5.981459E2,0E0,0E0,1.5093596E1,3.1154541E1,0E0,5.860595E2,5.0503235E2,7.617873E1,1.4390503E1,0E0,0E0,2.9299927E1,3.0770416E1,5.0413245E2,1.5823364E-1,2.5197144E2,0E0,0E0,0E0,0E0,0E0,0E0,0E0,0E0,0E0,0E0,0E0,0E0,0E0,0E0,0E0],"parents":[2147483647,0,0,1,1,2,2,3,3,4,4,5,5,6,6,7,7,8,8,13,13,14,14,15,15,18,18,19,19,21,21,22,22,23,23,24,24,27,27,28,28,29,29,30,30,31,31],"right_children":[2,4,6,8,10,12,14,16,18,-1,-1,-1,-1,20,22,24,-1,-1,26,28,-1,30,32,34,36,-1,-1,38,40,42,44,46,-1,-1,-1,-1,-1,-1,-1,-1,-1,-1,-1,-1,-1,-1,-1],"split_conditions":[1.883E3,1E0,2.015E3,2E0,2E0,1E0,4.9194E4,2.9E1,5.02E2,3.5674332E-3,4.3632474E-2,-3.0715075E-1,2.0600854E-1,2.095281E6,5E0,4.95E2,3.0692738E-1,3.061658E-1,1E0,4.8526E4,-3.058833E-1,1E0,1E0,1E0,1.5E1,-2.6952764E-1,2.8219813E-1,1.48114E5,7.1E1,3.5E1,2E0,1.5E1,3.0582812E-1,-6.643406E-2,3.7243432E-1,3.0715603E-1,-2.4134639E-1,3.094136E-1,1.11028306E-1,2.1070145E-2,3.0220428E-1,-9.3292184E-2,3.2116842E-1,3.564537E-1,3.094284E-1,-3.0913472E-1,-1.3014838E-1],"split_indices":[16,0,16,17,0,13,16,3,16,0,0,0,0,9,20,22,0,0,13,16,0,13,7,19,21,0,0,9,9,9,9,20,0,0,0,0,0,0,0,0,0,0,0,0,0,0,0],"split_type":[0,0,0,0,0,0,0,0,0,0,0,0,0,0,0,0,0,0,0,0,0,0,0,0,0,0,0,0,0,0,0,0,0,0,0,0,0,0,0,0,0,0,0,0,0,0,0],"sum_hessian":[1.7228059E4,5.5207495E3,1.1707309E4,5.1438066E3,3.7694293E2,2.7531953E3,8.954113E3,3.3467644E3,1.7970424E3,3.1127728E2,6.566565E1,2.751205E3,1.9901329E0,1.9425952E3,7.0115176E3,1.9443115E3,1.4024529E3,1.7802177E3,1.6824673E1,1.6228984E3,3.1969678E2,3.650121E3,3.3613965E3,6.877486E2,1.2565629E3,6.340786E0,1.0483888E1,1.4825093E3,1.4038913E2,3.293082E3,3.570391E2,3.208104E3,1.5329245E2,6.5108624E2,3.6662388E1,1.2529313E3,3.6316857E0,1.4106477E3,7.186155E1,7.644673E1,6.3942394E1,3.0044783E3,2.886038E2,2.804525E2,7.658658E1,2.149565E3,1.0585392E3],"tree_param":{"num_deleted":"0","num_feature":"42","num_nodes":"47","size_leaf_vector":"1"}},{"base_weights":[1.0481463E-2,7.5203186E-1,-3.3064115E-1,8.1978846E-1,2.5252806E-2,-1.0156796E0,-1.4307049E-1,7.261253E-1,1.0062999E0,2.5028074E-3,3.2021105E-2,-3.051933E-1,1.9110474E-1,4.7934856E-2,-9.221557E-1,5.3971523E-1,3.049662E-1,3.0413064E-1,2.2377282E-1,-9.664056E-2,8.628466E-1,-9.491281E-1,4.5000872E-1,-9.487306E-2,1.010787E0,-2.5707036E-1,2.7286044E-1,6.073869E-1,-3.8629368E-1,3.7955936E-2,2.3262427E0,-9.928763E-1,-6.112143E-1,-4.521853E-2,3.4502536E-1,3.0511698E-1,-2.2731538E-1,2.7486688E-1,-3.037625E-1,-1.631699E-1,3.10063E-1,-1.3262154E-1,3.0753073E-1,7.703133E-1,5.089671E-1,-2.987817E-1,2.0993935E-1,-2.8924078E-1,3.0895716E-1],"categories":[],"categories_nodes":[],"categories_segments":[],"categories_sizes":[],"default_left":[0,0,0,0,0,0,0,0,0,0,0,0,0,0,0,0,0,0,0,0,0,0,0,0,0,0,0,0,0,0,0,0,0,0,0,0,0,0,0,0,0,0,0,0,0,0,0,0,0],"id":11,"left_children":[1,3,5,7,9,11,13,15,17,-1,-1,-1,-1,19,21,23,-1,-1,25,27,29,31,-1,33,35,-1,-1,37,39,41,43,45,47,-1,-1,-1,-1,-1,-1,-1,-1,-1,-1,-1,-1,-1,-1,-1,-1],"loss_changes":[3.525576E3,2.1622412E2,1.2264547E3,6.943945E1,5.1653147E-1,6.18042E0,1.1154075E3,1.4441064E2,7.606201E0,0E0,0E0,0E0,0E0,7.09387E2,9.7842285E1,4.882437E2,0E0,0E0,1.112067E1,1.0431348E3,1.0951001E3,2.0979126E1,0E0,4.861595E1,1.116333E1,0E0,0E0,7.4693567E2,8.1152704E2,2.7586987E2,4.5369263E1,7.390747E0,9.9437485E1,0E0,0E0,0E0,0E0,0E0,0E0,0E0,0E0,0E0,0E0,0E0,0E0,0E0,0E0,0E0,0E0],"parents":[2147483647,0,0,1,1,2,2,3,3,4,4,5,5,6,6,7,7,8,8,13,13,14,14,15,15,18,18,19,19,20,20,21,21,23,23,24,24,27,27,28,28,29,29,30,30,31,31,32,32],"right_children":[2,4,6,8,10,12,14,16,18,-1,-1,-1,-1,20,22,24,-1,-1,26,28,30,32,-1,34,36,-1,-1,38,40,42,44,46,48,-1,-1,-1,-1,-1,-1,-1,-1,-1,-1,-1,-1,-1,-1,-1,-1],"split_conditions":[1.883E3,1E0,2.015E3,2E0,2E0,1E0,6.0944E4,2.9E1,5.02E2,2.5028074E-3,3.2021105E-2,-3.051933E-1,1.9110474E-1,5.895E4,1E0,4.95E2,3.049662E-1,3.0413064E-1,1E0,4.9194E4,1E0,1E0,4.5000872E-1,1E0,1.5E1,-2.5707036E-1,2.7286044E-1,2.095281E6,7.1E1,7.1E1,6.0395E4,1E0,1E0,-4.521853E-2,3.4502536E-1,3.0511698E-1,-2.2731538E-1,2.7486688E-1,-3.037625E-1,-1.631699E-1,3.10063E-1,-1.3262154E-1,3.0753073E-1,7.703133E-1,5.089671E-1,-2.987817E-1,2.0993935E-1,-2.8924078E-1,3.0895716E-1],"split_indices":[16,0,16,17,0,13,16,3,16,0,0,0,0,16,14,22,0,0,13,16,15,13,0,19,21,0,0,9,9,9,16,7,9,0,0,0,0,0,0,0,0,0,0,0,0,0,0,0,0],"split_type":[0,0,0,0,0,0,0,0,0,0,0,0,0,0,0,0,0,0,0,0,0,0,0,0,0,0,0,0,0,0,0,0,0,0,0,0,0,0,0,0,0,0,0,0,0,0,0,0,0],"sum_hessian":[1.3935325E4,4.3902856E3,9.54504E3,4.0157727E3,3.7451288E2,2.050794E3,7.4942456E3,2.6765457E3,1.339227E3,3.1106177E2,6.3451103E1,2.0491555E3,1.6383327E0,6.019425E3,1.4748209E3,1.6319475E3,1.044598E3,1.3262728E3,1.2954253E1,5.1131675E3,9.062576E2,1.4591803E3,1.5640632E1,6.956393E2,9.3630817E2,4.932188E0,8.022065E0,1.490144E3,3.6230232E3,5.802224E2,3.2603522E2,1.2902048E3,1.6897539E2,6.6661053E2,2.9028744E1,9.3342395E2,2.8842094E0,1.2519053E3,2.382388E2,3.261594E3,3.614293E2,3.9075766E2,1.8946474E2,2.334395E2,9.2595726E1,1.2882855E3,1.9193369E0,1.3940752E2,2.9567873E1],"tree_param":{"num_deleted":"0","num_feature":"42","num_nodes":"49","size_leaf_vector":"1"}},{"base_weights":[5.009859E-3,6.910765E-1,-2.988415E-1,7.7019984E-1,1.7920664E-2,-1.0106413E0,-1.3101596E-1,6.6411847E-1,1.0005147E0,1.7553973E-3,2.3257148E-2,-3.0373812E-1,1.7686039E-1,2.9064085E-2,-8.951155E-1,4.7011873E-1,3.0348587E-1,3.0249894E-1,2.1037987E-1,2.616656E-1,-3.7077394E-1,-9.224917E-1,3.851212E-1,-6.369173E-2,1.0051839E0,-2.4399556E-1,2.6267508E-1,3.881057E-1,-3.0739197E-1,-1.0163205E0,5.192026E-1,-9.654578E-1,-5.906199E-1,-3.1100614E-2,3.258931E-1,3.0357522E-1,-2.1295615E-1,3.102005E-1,6.8155915E-2,-3.0692643E-1,5.521861E-1,3.1115678E-1,-3.080607E-1,-2.9062247E-1,1.9389255E-1,-2.7997205E-1,3.0098853E-1],"categories":[],"categories_nodes":[],"categories_segments":[],"categories_sizes":[],"default_left":[0,0,0,0,0,0,0,0,0,0,0,0,0,0,0,0,0,0,0,0,0,0,0,0,0,0,0,0,0,0,0,0,0,0,0,0,0,0,0,0,0,0,0,0,0,0,0],"id":12,"left_children":[1,3,5,7,9,11,13,15,17,-1,-1,-1,-1,19,21,23,-1,-1,25,27,29,31,-1,33,35,-1,-1,37,-1,39,41,43,45,-1,-1,-1,-1,-1,-1,-1,-1,-1,-1,-1,-1,-1,-1],"loss_changes":[2.4068684E3,1.8874475E2,9.5575903E2,7.6813965E1,2.6842484E-1,5.040039E0,7.9219324E2,1.460935E2,5.9506226E0,0E0,0E0,0E0,0E0,4.9817633E2,6.809943E1,3.9910486E2,0E0,0E0,8.22885E0,5.511687E2,1.1323877E3,1.523584E1,0E0,3.2308125E1,8.776367E0,0E0,0E0,3.2031467E2,0E0,2.3966919E1,6.6488904E2,5.812195E0,7.17315E1,0E0,0E0,0E0,0E0,0E0,0E0,0E0,0E0,0E0,0E0,0E0,0E0,0E0,0E0],"parents":[2147483647,0,0,1,1,2,2,3,3,4,4,5,5,6,6,7,7,8,8,13,13,14,14,15,15,18,18,19,19,20,20,21,21,23,23,24,24,27,27,29,29,30,30,31,31,32,32],"right_children":[2,4,6,8,10,12,14,16,18,-1,-1,-1,-1,20,22,24,-1,-1,26,28,30,32,-1,34,36,-1,-1,38,-1,40,42,44,46,-1,-1,-1,-1,-1,-1,-1,-1,-1,-1,-1,-1,-1,-1],"split_conditions":[1.883E3,1E0,2.015E3,2E0,2E0,1E0,6.0944E4,2.9E1,5.02E2,1.7553973E-3,2.3257148E-2,-3.0373812E-1,1.7686039E-1,5E0,1E0,4.95E2,3.0348587E-1,3.0249894E-1,1E0,1.6E1,1.5E1,1E0,3.851212E-1,1E0,1.5E1,-2.4399556E-1,2.6267508E-1,4.8526E4,-3.0739197E-1,1E0,1.11812E5,1E0,1E0,-3.1100614E-2,3.258931E-1,3.0357522E-1,-2.1295615E-1,3.102005E-1,6.8155915E-2,-3.0692643E-1,5.521861E-1,3.1115678E-1,-3.080607E-1,-2.9062247E-1,1.9389255E-1,-2.7997205E-1,3.0098853E-1],"split_indices":[16,0,16,17,0,13,16,3,16,0,0,0,0,20,14,22,0,0,13,32,20,13,0,19,21,0,0,16,0,19,9,7,9,0,0,0,0,0,0,0,0,0,0,0,0,0,0],"split_type":[0,0,0,0,0,0,0,0,0,0,0,0,0,0,0,0,0,0,0,0,0,0,0,0,0,0,0,0,0,0,0,0,0,0,0,0,0,0,0,0,0,0,0,0,0,0,0],"sum_hessian":[1.1543832E4,3.542942E3,8.00089E3,3.1701729E3,3.7276895E2,1.5255482E3,6.475342E3,2.1731292E3,9.9704376E2,3.1090952E2,6.1859447E1,1.5241829E3,1.3652742E0,5.354523E3,1.120819E3,1.3960872E3,7.770419E2,9.870055E2,1.0038292E1,3.3854304E3,1.9690925E3,1.1074806E3,1.3338339E1,6.99304E2,6.9678314E2,3.8660583E0,6.1722336E0,3.0830715E3,3.0235867E2,1.1411875E3,8.27905E2,9.788446E2,1.28636E2,6.7669037E2,2.261362E1,6.9446655E2,2.3165846E0,6.138365E2,2.469235E3,1.139131E3,2.0565212E0,6.203843E2,2.0752072E2,9.772525E2,1.5920792E0,1.0621833E2,2.2417673E1],"tree_param":{"num_deleted":"0","num_feature":"42","num_nodes":"47","size_leaf_vector":"1"}},{"base_weights":[2.4164813E-3,6.241056E-1,-2.67906E-1,7.135567E-1,1.2689446E-2,-1.0067394E0,-1.170829E-1,5.9665567E-1,9.9543583E-1,1.2309789E-3,1.6757788E-2,-3.0263895E-1,1.6344996E-1,1.8904146E-2,-8.6259854E-1,4.012006E-1,3.0233842E-1,3.0111063E-1,1.9584104E-1,-1.0753967E-1,6.0781986E-1,-8.8992536E-1,3.4586012E-1,-4.2684298E-2,1.0005854E0,-2.3029834E-1,2.514629E-1,1.5169743E-1,-8.8490367E-1,-9.712026E-1,3.0403608E-1,-9.3176377E-1,-5.6623393E-1,-2.252325E-2,3.162383E-1,3.0237606E-1,-1.9854848E-1,4.9527762E-3,3.3338043E-1,-3.056588E-1,-2.313515E-1,2.7486876E-1,-3.2750103E-1,-2.5428465E-1,-3.0727795E-1,-2.6884878E-1,2.9349062E-1],"categories":[],"categories_nodes":[],"categories_segments":[],"categories_sizes":[],"default_left":[0,0,0,0,0,0,0,0,0,0,0,0,0,0,0,0,0,0,0,0,0,0,0,0,0,0,0,0,0,0,0,0,0,0,0,0,0,0,0,0,0,0,0,0,0,0,0],"id":13,"left_children":[1,3,5,7,9,11,13,15,17,-1,-1,-1,-1,19,21,23,-1,-1,25,27,29,31,-1,33,35,-1,-1,37,39,41,-1,43,45,-1,-1,-1,-1,-1,-1,-1,-1,-1,-1,-1,-1,-1,-1],"loss_changes":[1.6142062E3,1.5918909E2,7.458518E2,8.308069E1,1.3785195E-1,4.1711426E0,5.637495E2,1.4403375E2,4.713745E0,0E0,0E0,0E0,0E0,3.5032776E2,4.8272278E1,3.2460986E2,0E0,0E0,6.117113E0,7.806621E2,5.336035E2,1.0942078E1,0E0,2.5014606E1,6.996338E0,0E0,0E0,3.768788E2,1.3973816E1,3.976053E1,0E0,4.9572144E0,5.1574356E1,0E0,0E0,0E0,0E0,0E0,0E0,0E0,0E0,0E0,0E0,0E0,0E0,0E0,0E0],"parents":[2147483647,0,0,1,1,2,2,3,3,4,4,5,5,6,6,7,7,8,8,13,13,14,14,15,15,18,18,19,19,20,20,21,21,23,23,24,24,27,27,28,28,29,29,31,31,32,32],"right_children":[2,4,6,8,10,12,14,16,18,-1,-1,-1,-1,20,22,24,-1,-1,26,28,30,32,-1,34,36,-1,-1,38,40,42,-1,44,46,-1,-1,-1,-1,-1,-1,-1,-1,-1,-1,-1,-1,-1,-1],"split_conditions":[1.883E3,1E0,2.015E3,2E0,2E0,1E0,6.0944E4,2.9E1,5.02E2,1.2309789E-3,1.6757788E-2,-3.0263895E-1,1.6344996E-1,7.1E1,1E0,4.95E2,3.0233842E-1,3.0111063E-1,1E0,1.5E1,6.285E3,1E0,3.4586012E-1,1.4E1,1.5E1,-2.3029834E-1,2.514629E-1,2E1,5.4465E4,5.9E3,3.0403608E-1,6.1008E4,1E0,-2.252325E-2,3.162383E-1,3.0237606E-1,-1.9854848E-1,4.9527762E-3,3.3338043E-1,-3.056588E-1,-2.313515E-1,2.7486876E-1,-3.2750103E-1,-2.5428465E-1,-3.0727795E-1,-2.6884878E-1,2.9349062E-1],"split_indices":[16,0,16,17,0,13,16,3,16,0,0,0,0,9,14,22,0,0,13,9,16,13,0,2,21,0,0,17,16,16,0,16,9,0,0,0,0,0,0,0,0,0,0,0,0,0,0],"split_type":[0,0,0,0,0,0,0,0,0,0,0,0,0,0,0,0,0,0,0,0,0,0,0,0,0,0,0,0,0,0,0,0,0,0,0,0,0,0,0,0,0,0,0,0,0,0,0],"sum_hessian":[9.603143E3,2.9098184E3,6.6933247E3,2.5382947E3,3.715236E2,1.1337545E3,5.55957E3,1.7964052E3,7.418896E2,3.1080222E2,6.072136E1,1.1326028E3,1.1517481E0,4.7027344E3,8.568356E2,1.2189117E3,5.7749347E2,7.340457E2,7.8438253E0,3.8721726E3,8.3056177E2,8.459245E2,1.091106E1,7.008292E2,5.1808246E2,3.059608E0,4.7842174E0,2.9044087E3,9.677639E2,1.694693E2,6.6109247E2,7.4743677E2,9.848778E1,6.816295E2,1.919967E1,5.1619867E2,1.8838005E0,2.5466443E3,3.577643E2,4.407129E2,5.2705096E2,9.771292E0,1.59698E2,3.967013E2,3.5073544E2,8.149863E1,1.6989151E1],"tree_param":{"num_deleted":"0","num_feature":"42","num_nodes":"47","size_leaf_vector":"1"}},{"base_weights":[3.0748781E-3,5.5270493E-1,-2.3191956E-1,4.240681E-1,9.906029E-1,2.674933E-2,-6.482422E-1,2.525273E-1,3.0141264E-1,2.998343E-1,1.8034631E-1,-2.9976463E-1,1.390361E-1,-1.0072318E0,-2.2052908E-2,-1.5442462E-2,9.9657375E-1,-2.1614784E-1,2.3921172E-1,3.0807114E-1,1.3369197E-2,-3.036015E-1,4.2059356E-1,9.369468E-1,-9.93518E-1,-3.4229953E-2,3.122001E-1,3.0140293E-1,-1.8440425E-1,-7.8498475E-2,3.2586238E-1,1.0164044E0,-1.4776883E-1,2.1705224E-1,-3.0192465E-1,-1.50136445E-2,3.0330777E-1,-8.494832E-2,9.604268E-2,3.3369863E-1,2.216748E-1,2.7797508E-1,-2.8544647E-1],"categories":[],"categories_nodes":[],"categories_segments":[],"categories_sizes":[],"default_left":[0,0,0,0,0,0,0,0,0,0,0,0,0,0,0,0,0,0,0,0,0,0,0,0,0,0,0,0,0,0,0,0,0,0,0,0,0,0,0,0,0,0,0],"id":14,"left_children":[1,3,5,7,9,11,13,15,-1,-1,17,-1,19,21,23,25,27,-1,-1,-1,29,-1,-1,31,33,35,-1,-1,-1,37,-1,39,41,-1,-1,-1,-1,-1,-1,-1,-1,-1,-1],"loss_changes":[1.0516613E3,1.3694672E2,6.1424786E2,1.8766379E2,3.7824707E0,4.0552466E2,4.9133618E2,2.9065918E2,0E0,0E0,4.5715933E0,0E0,3.5397626E2,1.7395142E1,7.439168E2,2.1320166E1,5.657013E0,0E0,0E0,0E0,2.7410815E2,0E0,0E0,3.4784576E1,9.51236E0,1.749009E1,0E0,0E0,0E0,2.0910977E2,0E0,9.147644E0,2.5317884E1,0E0,0E0,0E0,0E0,0E0,0E0,0E0,0E0,0E0,0E0],"parents":[2147483647,0,0,1,1,2,2,3,3,4,4,5,5,6,6,7,7,10,10,12,12,13,13,14,14,15,15,16,16,20,20,23,23,24,24,25,25,29,29,31,31,32,32],"right_children":[2,4,6,8,10,12,14,16,-1,-1,18,-1,20,22,24,26,28,-1,-1,-1,30,-1,-1,32,34,36,-1,-1,-1,38,-1,40,42,-1,-1,-1,-1,-1,-1,-1,-1,-1,-1],"split_conditions":[1.883E3,2E0,5E0,2.9E1,5.02E2,2.015E3,8.7E1,4.95E2,3.0141264E-1,2.998343E-1,1E0,-2.9976463E-1,4.8526E4,4.4E1,3.3992E4,1E0,1.5E1,-2.1614784E-1,2.3921172E-1,3.0807114E-1,1E0,-3.036015E-1,4.2059356E-1,1.488145E6,3.693E3,1.4E1,3.122001E-1,3.0140293E-1,-1.8440425E-1,5.895E4,3.2586238E-1,6.62E2,4.802E3,2.1705224E-1,-3.0192465E-1,-1.50136445E-2,3.0330777E-1,-8.494832E-2,9.604268E-2,3.3369863E-1,2.216748E-1,2.7797508E-1,-2.8544647E-1],"split_indices":[16,17,20,3,16,16,20,22,0,0,13,0,16,19,9,19,21,0,0,0,13,0,0,20,16,2,0,0,0,16,0,9,16,0,0,0,0,0,0,0,0,0,0],"split_type":[0,0,0,0,0,0,0,0,0,0,0,0,0,0,0,0,0,0,0,0,0,0,0,0,0,0,0,0,0,0,0,0,0,0,0,0,0,0,0,0,0,0,0],"sum_hessian":[8.140322E3,2.4376152E3,5.702707E3,1.8856542E3,5.5196106E2,3.517904E3,2.1848027E3,1.4567239E3,4.2893033E2,5.4577E2,6.1910686E0,3.4625665E2,3.1716475E3,1.388295E3,7.965077E2,1.0717207E3,3.8500305E2,2.4485602E0,3.7425086E0,3.9235947E2,2.779288E3,1.3861288E3,2.1662757E0,4.0084332E2,3.9566437E2,1.0539395E3,1.77813E1,3.8345123E2,1.5518141E0,2.5609219E3,2.183661E2,3.7354352E2,2.7299807E1,2.5390966E0,3.9312527E2,1.0391682E3,1.4771295E1,1.6923547E3,8.6856714E2,2.753498E2,9.8193726E1,1.1617511E1,1.5682296E1],"tree_param":{"num_deleted":"0","num_feature":"42","num_nodes":"43","size_leaf_vector":"1"}},{"base_weights":[3.1923652E-3,4.801962E-1,-2.0128635E-1,3.5561255E-1,9.855985E-1,2.2060795E-2,-6.410143E-1,2.0301051E-1,3.0062103E-1,2.985525E-1,1.6426234E-1,1.257554E-1,-3.0262622E-1,-1.0030081E0,-2.3181971E-2,-9.122047E-3,9.928063E-1,-2.0182596E-1,2.2606982E-1,3.1386286E-2,1.0707052E0,-3.0253935E-1,3.451512E-1,8.931874E-1,-9.839286E-1,-2.3121571E-2,2.998381E-1,3.005638E-1,-1.708073E-1,1.3241754E-1,-8.035454E-1,1.5455587E0,3.020648E-1,1.0842925E0,4.4229618E-1,2.0302443E-1,-9.977935E-1,-1.0459293E-2,2.9186466E-1,1.6574336E-2,5.730679E-1,-1.7579776E-1,-3.0390188E-1,1.6086642E-1,4.7790217E-1,3.1725776E-1,4.154246E-1,-1.0295329E0,1.853799E-1,-3.014772E-1,1.544901E-1],"categories":[],"categories_nodes":[],"categories_segments":[],"categories_sizes":[],"default_left":[0,0,0,0,0,0,0,0,0,0,0,0,0,0,0,0,0,0,0,0,0,0,0,0,0,0,0,0,0,0,0,0,0,0,0,0,0,0,0,0,0,0,0,0,0,0,0,0,0,0,0],"id":15,"left_children":[1,3,5,7,9,11,13,15,-1,-1,17,19,-1,21,23,25,27,-1,-1,29,31,-1,-1,33,35,37,-1,-1,-1,39,41,43,-1,45,47,-1,49,-1,-1,-1,-1,-1,-1,-1,-1,-1,-1,-1,-1,-1,-1],"loss_changes":[6.777353E2,1.3092429E2,4.7767834E2,1.649531E2,3.0750732E0,3.4498984E2,3.6637762E2,2.2714215E2,0E0,0E0,3.4384184E0,2.614549E2,0E0,1.3298218E1,5.3464404E2,1.5126119E1,4.638855E0,0E0,0E0,2.2508875E2,6.512085E0,0E0,0E0,2.6303802E1,7.500946E0,1.2384419E1,0E0,0E0,0E0,3.2642422E2,1.2531982E1,5.668793E-1,0E0,2.856903E-1,6.6226875E1,0E0,3.6930847E0,0E0,0E0,0E0,0E0,0E0,0E0,0E0,0E0,0E0,0E0,0E0,0E0,0E0,0E0],"parents":[2147483647,0,0,1,1,2,2,3,3,4,4,5,5,6,6,7,7,10,10,11,11,13,13,14,14,15,15,16,16,19,19,20,20,23,23,24,24,25,25,29,29,30,30,31,31,33,33,34,34,36,36],"right_children":[2,4,6,8,10,12,14,16,-1,-1,18,20,-1,22,24,26,28,-1,-1,30,32,-1,-1,34,36,38,-1,-1,-1,40,42,44,-1,46,48,-1,50,-1,-1,-1,-1,-1,-1,-1,-1,-1,-1,-1,-1,-1,-1],"split_conditions":[1.883E3,2E0,5E0,2.9E1,5.02E2,1.6E1,8.7E1,4.95E2,3.0062103E-1,2.985525E-1,1E0,3.5E1,-3.0262622E-1,4.4E1,3.3992E4,1E0,1.5E1,-2.0182596E-1,2.2606982E-1,1.5E1,7.1E1,-3.0253935E-1,3.451512E-1,6.62E2,3.693E3,1.4E1,2.998381E-1,3.005638E-1,-1.708073E-1,2E0,5.605E4,5.4634E4,3.020648E-1,6.0944E4,6.285E3,2.0302443E-1,1E0,-1.0459293E-2,2.9186466E-1,1.6574336E-2,5.730679E-1,-1.7579776E-1,-3.0390188E-1,1.6086642E-1,4.7790217E-1,3.1725776E-1,4.154246E-1,-1.0295329E0,1.853799E-1,-3.014772E-1,1.544901E-1],"split_indices":[16,17,20,3,16,32,20,22,0,0,13,9,0,19,9,19,21,0,0,9,9,0,0,9,16,2,0,0,0,9,16,16,0,16,16,0,7,0,0,0,0,0,0,0,0,0,0,0,0,0,0],"split_type":[0,0,0,0,0,0,0,0,0,0,0,0,0,0,0,0,0,0,0,0,0,0,0,0,0,0,0,0,0,0,0,0,0,0,0,0,0,0,0,0,0,0,0,0,0,0,0,0,0,0,0],"sum_hessian":[6.946494E3,2.0838896E3,4.8626045E3,1.6731543E3,4.1073544E2,3.2253372E3,1.6372672E3,1.3546832E3,3.18471E2,4.057924E2,4.9430656E0,2.931338E3,2.9399933E2,1.0319907E3,6.0527655E2,1.0686431E3,2.8604016E2,1.9837898E0,2.959276E0,2.6661147E3,2.6522314E2,1.029913E3,2.077794E0,3.09829E2,2.9544757E2,1.0549767E3,1.3666421E1,2.8474503E2,1.2951381E0,2.3790752E3,2.8703958E2,2.8673052E1,2.3655008E2,2.1661461E2,9.321439E1,2.0503845E0,2.933972E2,1.0436373E3,1.1339332E1,2.2810903E3,9.798476E1,1.4266287E2,1.4437672E2,1.8396928E0,2.6833359E1,2.0304568E2,1.3568915E1,3.2386866E0,8.997571E1,2.9235486E2,1.0423237E0],"tree_param":{"num_deleted":"0","num_feature":"42","num_nodes":"51","size_leaf_vector":"1"}},{"base_weights":[1.4268238E-3,4.0833136E-1,-1.7202082E-1,2.9234445E-1,9.8001325E-1,-9.976762E-1,-5.9546128E-2,1.608651E-1,2.998902E-1,2.9715112E-1,1.4806151E-1,-3.007654E-1,1.6902365E-1,4.675683E-2,-8.103232E-1,-5.005539E-3,9.889791E-1,-1.8765785E-1,2.1231559E-1,-7.2687864E-2,5.285213E-1,-8.450632E-1,3.1056187E-1,-1.5519759E-2,2.886235E-1,2.99781E-1,-1.5797609E-1,6.4102024E-1,-1.967434E-1,6.6883105E-1,-1.564269E-1,-6.6117394E-1,-9.712423E-1,-7.298487E-3,2.8090346E-1,2.800479E-1,-2.5989023E-1,-8.125633E-2,3.036781E-1,2.2317201E-1,3.0487461E-2,-2.9917789E-1,2.958205E-1,4.981077E-1,-2.9975536E-1,-3.05501E-1,-4.531589E-2],"categories":[],"categories_nodes":[],"categories_segments":[],"categories_sizes":[],"default_left":[0,0,0,0,0,0,0,0,0,0,0,0,0,0,0,0,0,0,0,0,0,0,0,0,0,0,0,0,0,0,0,0,0,0,0,0,0,0,0,0,0,0,0,0,0,0,0],"id":16,"left_children":[1,3,5,7,9,11,13,15,-1,-1,17,-1,-1,19,21,23,25,-1,-1,27,29,31,-1,33,-1,-1,-1,35,37,39,41,43,45,-1,-1,-1,-1,-1,-1,-1,-1,-1,-1,-1,-1,-1,-1],"loss_changes":[4.301813E2,1.2050339E2,3.968083E2,1.4080229E2,2.531189E0,4.463745E0,3.003044E2,1.7574474E2,0E0,0E0,2.605897E0,0E0,0E0,1.8973804E2,3.0795898E1,1.0863371E1,3.8561096E0,0E0,0E0,2.3409348E2,6.3059845E1,9.999054E0,0E0,8.8803215E0,0E0,0E0,0E0,1.7341823E2,2.0205295E2,2.3084747E1,1.0875319E2,1.5056482E2,1.0269623E1,0E0,0E0,0E0,0E0,0E0,0E0,0E0,0E0,0E0,0E0,0E0,0E0,0E0,0E0],"parents":[2147483647,0,0,1,1,2,2,3,3,4,4,5,5,6,6,7,7,10,10,13,13,14,14,15,15,16,16,19,19,20,20,21,21,23,23,27,27,28,28,29,29,30,30,31,31,32,32],"right_children":[2,4,6,8,10,12,14,16,-1,-1,18,-1,-1,20,22,24,26,-1,-1,28,30,32,-1,34,-1,-1,-1,36,38,40,42,44,46,-1,-1,-1,-1,-1,-1,-1,-1,-1,-1,-1,-1,-1,-1],"split_conditions":[1.883E3,2E0,2.015E3,2.9E1,5.02E2,1E0,6.0944E4,4.95E2,2.998902E-1,2.9715112E-1,1E0,-3.007654E-1,1.6902365E-1,5.9326E4,1E0,1E0,1.5E1,-1.8765785E-1,2.1231559E-1,4.8526E4,5E0,6.1008E4,3.1056187E-1,1.4E1,2.886235E-1,2.99781E-1,-1.5797609E-1,8.1348E5,7.1E1,5E0,7.1E1,7.62E2,7.1E1,-7.298487E-3,2.8090346E-1,2.800479E-1,-2.5989023E-1,-8.125633E-2,3.036781E-1,2.2317201E-1,3.0487461E-2,-2.9917789E-1,2.958205E-1,4.981077E-1,-2.9975536E-1,-3.05501E-1,-4.531589E-2],"split_indices":[16,17,16,3,16,13,16,22,0,0,13,0,0,16,14,19,21,0,0,16,9,16,0,2,0,0,0,9,9,20,9,9,9,0,0,0,0,0,0,0,0,0,0,0,0,0,0],"split_type":[0,0,0,0,0,0,0,0,0,0,0,0,0,0,0,0,0,0,0,0,0,0,0,0,0,0,0,0,0,0,0,0,0,0,0,0,0,0,0,0,0,0,0,0,0,0,0],"sum_hessian":[6.0932417E3,1.8206593E3,4.2725825E3,1.5148309E3,3.0582837E2,5.1130673E2,3.7612756E3,1.278412E3,2.3641888E2,3.0183188E2,3.9964929E0,5.100716E2,1.2351239E0,3.295589E3,4.6568665E2,1.0659058E3,2.1250621E2,1.6282055E0,2.3682873E0,2.6415212E3,6.5406775E2,4.5761465E2,8.07199E0,1.0554152E3,1.0490614E1,2.1141138E2,1.0948348E0,3.905378E2,2.2509834E3,5.428832E2,1.11184586E2,1.8876082E2,2.6885382E2,1.0467035E3,8.711724E0,3.2739288E2,6.3144917E1,2.1217007E3,1.2928267E2,4.7915106E2,6.373212E1,6.412106E1,4.7063522E1,2.3493057E1,1.6526776E2,2.5402635E2,1.4827484E1],"tree_param":{"num_deleted":"0","num_feature":"42","num_nodes":"47","size_leaf_vector":"1"}},{"base_weights":[1.1314043E-3,1.2885338E-1,-4.926486E-1,1.7870764E-1,-3.0071896E-1,-9.901906E-1,1.9727613E-1,1.24397315E-1,3.185829E-1,-1.0031916E0,3.0760637E-1,8.3613056E-1,-9.686077E-1,8.376436E-2,1.0579978E0,-1.5741102E-2,-3.014979E-1,9.54904E-1,-3.3025485E-1,2.2342597E-1,-3.009806E-1,3.8558953E-2,2.9915398E-1,1.3338429E0,2.99414E-1,3.1008178E-1,7.76356E-1,3.2886615E-1,-2.910289E-1,-1.663229E-3,2.9544103E-1,1.4435264E-1,4.1381314E-1,-2.8049216E-1,2.6305383E-1],"categories":[],"categories_nodes":[],"categories_segments":[],"categories_sizes":[],"default_left":[0,0,0,0,0,0,0,0,0,0,0,0,0,0,0,0,0,0,0,0,0,0,0,0,0,0,0,0,0,0,0,0,0,0,0],"id":17,"left_children":[1,3,5,7,-1,9,11,13,-1,15,-1,17,19,21,23,-1,-1,25,27,-1,-1,29,-1,31,-1,-1,33,-1,-1,-1,-1,-1,-1,-1,-1],"loss_changes":[3.4342914E2,2.4417865E2,3.8433826E2,1.9868164E2,0E0,1.8070557E1,3.5067322E2,1.4807347E2,0E0,1.0548096E0,0E0,4.2427902E1,1.0649261E1,1.5455118E2,1.3611908E0,0E0,0E0,3.0779724E0,2.738344E1,0E0,0E0,1.4892154E2,0E0,3.494339E-1,0E0,0E0,1.6039478E1,0E0,0E0,0E0,0E0,0E0,0E0,0E0,0E0],"parents":[2147483647,0,0,1,1,2,2,3,3,5,5,6,6,7,7,9,9,11,11,12,12,13,13,14,14,17,17,18,18,21,21,23,23,26,26],"right_children":[2,4,6,8,-1,10,12,14,-1,16,-1,18,20,22,24,-1,-1,26,28,-1,-1,30,-1,32,-1,-1,34,-1,-1,-1,-1,-1,-1,-1,-1],"split_conditions":[5E0,1.6E1,8.7E1,2E1,-3.0071896E-1,4.2E1,4.6681E4,3.5E1,3.185829E-1,1.702E3,3.0760637E-1,6.0944E4,3.693E3,2.9E1,7.1E1,-1.5741102E-2,-3.014979E-1,6.62E2,2.63E2,2.2342597E-1,-3.009806E-1,4.95E2,2.9915398E-1,5.4634E4,2.99414E-1,3.1008178E-1,8.62E2,3.2886615E-1,-2.910289E-1,-1.663229E-3,2.9544103E-1,1.4435264E-1,4.1381314E-1,-2.8049216E-1,2.6305383E-1],"split_indices":[20,32,20,17,0,19,9,9,0,16,0,16,16,3,9,0,0,9,9,0,0,22,0,16,0,0,9,0,0,0,0,0,0,0,0],"split_type":[0,0,0,0,0,0,0,0,0,0,0,0,0,0,0,0,0,0,0,0,0,0,0,0,0,0,0,0,0,0,0,0,0,0,0],"sum_hessian":[5.443496E3,4.3254155E3,1.1180803E3,4.143647E3,1.8176875E2,6.49358E2,4.6872238E2,3.9046877E3,2.389592E2,6.456953E2,3.662671E0,3.0298334E2,1.6573906E2,3.7428767E3,1.6181094E2,1.278125E0,6.444172E2,2.751464E2,2.7836946E1,2.8801498E0,1.628589E2,3.5673682E3,1.7550868E2,2.5095175E1,1.3671577E2,1.8764546E2,8.750092E1,8.398931E0,1.9438017E1,3.4094526E3,1.5791539E2,1.8586013E0,2.3236574E1,4.39254E0,8.310838E1],"tree_param":{"num_deleted":"0","num_feature":"42","num_nodes":"35","size_leaf_vector":"1"}},{"base_weights":[1.106784E-3,1.01123005E-1,-4.869228E-1,1.3890539E-1,-2.9954165E-1,-9.862813E-1,1.920983E-1,9.553719E-2,3.1525797E-1,-1.0003074E0,2.79505E-1,8.0730647E-1,-9.624693E-1,1.2857829E-1,-9.0251166E-1,-1.3102995E-2,-3.008293E-1,9.227455E-1,-3.1578198E-1,2.0983066E-1,-2.9988447E-1,1.07938014E-1,1.5579988E0,2.9057136E-1,-3.0453897E-1,3.0682576E-1,7.116369E-1,2.9940167E-1,-2.8575423E-1,2.2524705E-2,3.101066E-1,4.8565826E-1,-1.9785558E-1,3.8874675E-2,2.9585648E-1],"categories":[],"categories_nodes":[],"categories_segments":[],"categories_sizes":[],"default_left":[0,0,0,0,0,0,0,0,0,0,0,0,0,0,0,0,0,0,0,0,0,0,0,0,0,0,0,0,0,0,0,0,0,0,0],"id":18,"left_children":[1,3,5,7,-1,9,11,13,-1,15,-1,17,19,21,23,-1,-1,25,27,-1,-1,29,31,-1,-1,-1,33,-1,-1,-1,-1,-1,-1,-1,-1],"loss_changes":[2.4076846E2,1.7021321E2,2.8466058E2,1.5646152E2,0E0,1.394165E1,2.5390047E2,1.247675E2,0E0,1.0856934E0,0E0,3.0502975E1,8.374619E0,1.0780745E2,2.6533607E1,0E0,0E0,3.7387543E0,1.9743063E1,0E0,0E0,1.0968579E2,8.088242E0,0E0,0E0,0E0,1.1265163E1,0E0,0E0,0E0,0E0,0E0,0E0,0E0,0E0],"parents":[2147483647,0,0,1,1,2,2,3,3,5,5,6,6,7,7,9,9,11,11,12,12,13,13,14,14,17,17,18,18,21,21,22,22,26,26],"right_children":[2,4,6,8,-1,10,12,14,-1,16,-1,18,20,22,24,-1,-1,26,28,-1,-1,30,32,-1,-1,-1,34,-1,-1,-1,-1,-1,-1,-1,-1],"split_conditions":[5E0,1.6E1,8.7E1,2E1,-2.9954165E-1,4.2E1,4.6681E4,6.1008E4,3.1525797E-1,1.702E3,2.79505E-1,6.0944E4,3.693E3,1E0,1E0,-1.3102995E-2,-3.008293E-1,6.62E2,2.63E2,2.0983066E-1,-2.9988447E-1,3.5E1,5E0,2.9057136E-1,-3.0453897E-1,3.0682576E-1,2.918E3,2.9940167E-1,-2.8575423E-1,2.2524705E-2,3.101066E-1,4.8565826E-1,-1.9785558E-1,3.8874675E-2,2.9585648E-1],"split_indices":[20,32,20,17,0,19,9,16,0,16,0,16,16,12,9,0,0,9,9,0,0,9,9,0,0,0,20,0,0,0,0,0,0,0,0],"split_type":[0,0,0,0,0,0,0,0,0,0,0,0,0,0,0,0,0,0,0,0,0,0,0,0,0,0,0,0,0,0,0,0,0,0,0],"sum_hessian":[4.9306724E3,4.0927097E3,8.3796246E2,3.9575994E3,1.3511052E2,4.826008E2,3.5536163E2,3.7789932E3,1.7860614E2,4.795721E2,3.0286741E0,2.3202731E2,1.23334335E2,3.6587393E3,1.2025395E2,1.2765784E0,4.7829553E2,2.1056256E2,2.1464745E1,2.306602E0,1.2102773E2,3.6077207E3,5.101859E1,6.3955336E0,1.1385841E2,1.4026917E2,7.029339E1,6.8217816E0,1.4642963E1,3.485112E3,1.2260844E2,4.9918488E1,1.1000996E0,2.3001562E1,4.729183E1],"tree_param":{"num_deleted":"0","num_feature":"42","num_nodes":"35","size_leaf_vector":"1"}},{"base_weights":[-1.7262691E-3,7.436636E-2,-4.7955528E-1,1.02435686E-1,-2.9833412E-1,-9.821927E-1,1.8701605E-1,6.855492E-2,3.1263587E-1,-9.9739826E-1,2.5601622E-1,7.748196E-1,-9.552202E-1,3.5503298E-2,2.9828167E-1,-9.787451E-3,-3.0023587E-1,8.861319E-1,-2.998612E-1,1.9596191E-1,-2.9864785E-1,4.1671614E-3,9.736486E-1,3.0396608E-1,6.421283E-1,2.718316E-1,-2.7935922E-1,-7.08734E-3,3.0363393E-1,2.9803625E-1,-1.6193394E-1,-1.1101177E-2,2.7855667E-1],"categories":[],"categories_nodes":[],"categories_segments":[],"categories_sizes":[],"default_left":[0,0,0,0,0,0,0,0,0,0,0,0,0,0,0,0,0,0,0,0,0,0,0,0,0,0,0,0,0,0,0,0,0],"id":19,"left_children":[1,3,5,7,-1,9,11,13,-1,15,-1,17,19,21,-1,-1,-1,23,25,-1,-1,27,29,-1,31,-1,-1,-1,-1,-1,-1,-1,-1],"loss_changes":[1.6692818E2,1.189178E2,2.1148877E2,1.2281938E2,0E0,1.0891144E1,1.8334103E2,1.1398903E2,0E0,1.1349792E0,0E0,2.181189E1,6.6647873E0,1.0580711E2,0E0,0E0,0E0,4.41835E0,1.4283405E1,0E0,0E0,9.7617874E1,4.0232697E0,0E0,1.1453712E1,0E0,0E0,0E0,0E0,0E0,0E0,0E0,0E0],"parents":[2147483647,0,0,1,1,2,2,3,3,5,5,6,6,7,7,9,9,11,11,12,12,13,13,17,17,18,18,21,21,22,22,24,24],"right_children":[2,4,6,8,-1,10,12,14,-1,16,-1,18,20,22,-1,-1,-1,24,26,-1,-1,28,30,-1,32,-1,-1,-1,-1,-1,-1,-1,-1],"split_conditions":[5E0,1.6E1,8.7E1,2E1,-2.9833412E-1,4.4E1,4.6681E4,2.9E1,3.1263587E-1,1.702E3,2.5601622E-1,6.0944E4,3.693E3,5.904E3,2.9828167E-1,-9.787451E-3,-3.0023587E-1,6.62E2,2.63E2,1.9596191E-1,-2.9864785E-1,3.5E1,1.5E1,3.0396608E-1,1.1468326E9,2.718316E-1,-2.7935922E-1,-7.08734E-3,3.0363393E-1,2.9803625E-1,-1.6193394E-1,-1.1101177E-2,2.7855667E-1],"split_indices":[20,32,20,17,0,19,9,3,0,16,0,16,16,22,0,0,0,9,9,0,0,9,21,0,10,0,0,0,0,0,0,0,0],"split_type":[0,0,0,0,0,0,0,0,0,0,0,0,0,0,0,0,0,0,0,0,0,0,0,0,0,0,0,0,0,0,0,0,0],"sum_hessian":[4.5890957E3,3.9594167E3,6.296792E2,3.8589758E3,1.0044078E2,3.5871307E2,2.709661E2,3.7257163E3,1.3325957E2,3.5621887E2,2.4942193E0,1.7911421E2,9.185188E1,3.5982822E3,1.2743402E2,1.2837237E0,3.5493512E2,1.624623E2,1.6651913E1,1.8718845E0,8.9979996E1,3.4829485E3,1.1533376E2,1.0475078E2,5.7711517E1,5.5724E0,1.1079513E1,3.390442E3,9.250653E1,1.14183075E2,1.1506884E0,1.737666E1,4.0334858E1],"tree_param":{"num_deleted":"0","num_feature":"42","num_nodes":"33","size_leaf_vector":"1"}},{"base_weights":[-5.1855465E-4,5.818663E-2,-4.7062957E-1,8.3472624E-2,-8.5210776E-1,-9.7763366E-1,1.8118866E-1,1.2243177E-2,4.015085E-1,2.7333388E-1,-9.528807E-1,-9.943526E-1,2.3308429E-1,7.376328E-1,-9.464589E-1,-1.966223E-2,2.9732105E-1,4.6469137E-1,-4.67722E-1,-3.0163655E-1,2.1677013E-1,-9.261533E-3,-2.9966468E-1,8.440965E-1,-2.826035E-1,1.8220955E-1,-2.9718456E-1,-4.902845E-2,3.041469E-1,4.3853658E-1,2.986654E0,-2.9497433E-1,2.784306E-1,3.0134866E-1,5.69269E-1,2.4546327E-1,-2.716855E-1,-2.4172345E-2,2.931687E-1,1.7902163E-1,8.5476905E-2,1.7092076E-1,1.0547179E0,-5.1870886E-3,2.9773483E-1],"categories":[],"categories_nodes":[],"categories_segments":[],"categories_sizes":[],"default_left":[0,0,0,0,0,0,0,0,0,0,0,0,0,0,0,0,0,0,0,0,0,0,0,0,0,0,0,0,0,0,0,0,0,0,0,0,0,0,0,0,0,0,0,0,0],"id":20,"left_children":[1,3,5,7,9,11,13,15,17,-1,19,21,-1,23,25,27,-1,29,31,-1,-1,-1,-1,33,35,-1,-1,37,-1,39,41,-1,-1,-1,43,-1,-1,-1,-1,-1,-1,-1,-1,-1,-1],"loss_changes":[1.1825863E2,8.775392E1,1.573818E2,8.397891E1,1.9177757E1,8.626221E0,1.3181966E2,9.464504E1,3.747265E1,0E0,9.355652E0,1.1284485E0,0E0,1.5497673E1,5.3689995E0,8.913488E1,0E0,4.0436203E1,3.4348137E1,0E0,0E0,0E0,0E0,5.0468903E0,1.03588085E1,0E0,0E0,9.251256E1,0E0,1.5080948E1,6.083687E0,0E0,0E0,0E0,1.2250065E1,0E0,0E0,0E0,0E0,0E0,0E0,0E0,0E0,0E0,0E0],"parents":[2147483647,0,0,1,1,2,2,3,3,4,4,5,5,6,6,7,7,8,8,10,10,11,11,13,13,14,14,15,15,17,17,18,18,23,23,24,24,27,27,29,29,30,30,34,34],"right_children":[2,4,6,8,10,12,14,16,18,-1,20,22,-1,24,26,28,-1,30,32,-1,-1,-1,-1,34,36,-1,-1,38,-1,40,42,-1,-1,-1,44,-1,-1,-1,-1,-1,-1,-1,-1,-1,-1],"split_conditions":[5E0,6.1008E4,8.7E1,5.895E4,1E0,4.2E1,4.6681E4,2.9E1,5E0,2.7333388E-1,3.5E1,1.702E3,2.3308429E-1,6.0944E4,3.693E3,1E0,2.9732105E-1,6.0944E4,3.5E1,-3.0163655E-1,2.1677013E-1,-9.261533E-3,-2.9966468E-1,6.62E2,2.63E2,1.8220955E-1,-2.9718456E-1,4.641E4,3.041469E-1,5.9937E4,9.799968E8,-2.9497433E-1,2.784306E-1,3.0134866E-1,4.233E3,2.4546327E-1,-2.716855E-1,-2.4172345E-2,2.931687E-1,1.7902163E-1,8.5476905E-2,1.7092076E-1,1.0547179E0,-5.1870886E-3,2.9773483E-1],"split_indices":[20,16,20,16,9,19,9,3,9,0,9,16,0,16,16,13,0,16,9,0,0,0,0,9,9,0,0,22,0,16,10,0,0,0,20,0,0,0,0,0,0,0,0,0,0],"split_type":[0,0,0,0,0,0,0,0,0,0,0,0,0,0,0,0,0,0,0,0,0,0,0,0,0,0,0,0,0,0,0,0,0,0,0,0,0,0,0,0,0,0,0,0,0],"sum_hessian":[4.283058E3,3.8083643E3,4.7469385E2,3.706319E3,1.02045166E2,2.6672623E2,2.0796764E2,3.0289692E3,6.773498E2,5.082125E0,9.6963036E1,2.6463785E2,2.0883749E0,1.3948422E2,6.848342E1,2.934304E3,9.4665344E1,6.318846E2,4.546521E1,9.4400696E1,2.5623453E0,1.2748859E0,2.6336298E2,1.26460464E2,1.3023754E1,1.5399216E0,6.69435E1,2.8541565E3,8.0147575E1,6.2656055E2,5.3240533E0,3.3418274E1,1.2046937E1,7.817802E1,4.8282444E1,4.5937243E0,8.43003E0,2.769933E3,8.422323E1,3.07249E2,3.1931155E2,1.3291342E0,3.994919E0,2.0637072E1,2.7645372E1],"tree_param":{"num_deleted":"0","num_feature":"42","num_nodes":"45","size_leaf_vector":"1"}},{"base_weights":[-1.6741203E-3,2.165372E-2,-2.9752776E-1,4.783815E-2,-6.856068E-1,2.1895599E-2,8.336706E-1,-7.3653555E-1,2.568205E-1,2.816308E-3,2.9708827E-1,9.1392934E-1,-2.5210986E-1,-3.9396593E-1,-9.51554E-1,-1.626865E-2,9.517692E-1,3.090977E-1,4.967166E-1,9.2104965E-1,-2.90597E-1,-3.001703E-1,1.385902E-1,-2.4418045E-2,7.3617056E-2,2.9612106E-1,-1.6972154E-1,-6.948154E-1,2.687256E-1,-4.1249935E-2,3.5829306E-1],"categories":[],"categories_nodes":[],"categories_segments":[],"categories_sizes":[],"default_left":[0,0,0,0,0,0,0,0,0,0,0,0,0,0,0,0,0,0,0,0,0,0,0,0,0,0,0,0,0,0,0],"id":21,"left_children":[1,3,-1,5,7,9,11,13,-1,15,-1,17,-1,19,21,23,25,-1,27,29,-1,-1,-1,-1,-1,-1,-1,-1,-1,-1,-1],"loss_changes":[9.442772E1,7.4005035E1,0E0,7.85245E1,1.1832024E1,6.8924904E1,1.7306778E1,9.837265E0,0E0,6.62919E1,0E0,5.2158127E0,0E0,4.2585457E1,6.314575E0,6.1167152E1,4.4242477E0,0E0,3.311776E1,5.165697E0,0E0,0E0,0E0,0E0,0E0,0E0,0E0,0E0,0E0,0E0,0E0],"parents":[2147483647,0,0,1,1,3,3,4,4,5,5,6,6,7,7,9,9,11,11,13,13,14,14,15,15,16,16,18,18,19,19],"right_children":[2,4,-1,6,8,10,12,14,-1,16,-1,18,-1,20,22,24,26,-1,28,30,-1,-1,-1,-1,-1,-1,-1,-1,-1,-1,-1],"split_conditions":[1.6E1,6.0944E4,-2.9752776E-1,2E1,1E0,1.4E1,1.11812E5,6.1008E4,2.568205E-1,4.95E2,2.9708827E-1,8.45E2,-2.5210986E-1,3.99E2,2E1,5.895E4,1.5E1,3.090977E-1,8.2E1,1.682E4,-2.90597E-1,-3.001703E-1,1.385902E-1,-2.4418045E-2,7.3617056E-2,2.9612106E-1,-1.6972154E-1,-6.948154E-1,2.687256E-1,-4.1249935E-2,3.5829306E-1],"split_indices":[32,16,0,17,14,2,9,16,0,22,0,9,0,9,17,16,21,0,19,11,0,0,0,0,0,0,0,0,0,0,0],"split_type":[0,0,0,0,0,0,0,0,0,0,0,0,0,0,0,0,0,0,0,0,0,0,0,0,0,0,0,0,0,0,0],"sum_hessian":[4.0864617E3,3.9933508E3,9.3111015E1,3.8516848E3,1.4166597E2,3.7295884E3,1.2209639E2,1.3764128E2,4.024684E0,3.6585117E3,7.107672E1,1.1694379E2,5.1526065E0,5.4169746E1,8.347154E1,3.5873472E3,7.116443E1,9.02858E1,2.6657988E1,1.629062E1,3.7879124E1,8.095653E1,2.5150092E0,2.872975E3,7.143721E2,6.98882E1,1.2762293E0,2.7151303E0,2.3942858E1,3.4444435E0,1.2846178E1],"tree_param":{"num_deleted":"0","num_feature":"42","num_nodes":"31","size_leaf_vector":"1"}},{"base_weights":[-1.0647275E-3,4.0080357E-2,-4.5875752E-1,2.3666965E-2,4.0641758E-1,-9.715916E-1,2.2522125E-1,7.337512E-4,9.914562E-1,-9.915816E-1,2.1651177E-1,7.068462E-1,-9.276629E-1,4.7855534E-2,-7.219435E-1,3.0594847E-1,-1.7311218E-1,-2.6423333E-2,-2.989701E-1,9.895944E-1,3.0109355E-1,1.5832855E-1,-2.9406378E-1,3.0812858E-2,1.4802475E0,-3.0092496E-1,-4.9316508E-1,3.0000237E-1,9.180869E-2,-1.0292028E-1,2.8220114E-1,4.4374545E-3,2.9537085E-1,4.734845E-1,1.5765896E-1,3.4448773E-1,-2.830333E-1,2.7150702E-1,-2.0458294E-1],"categories":[],"categories_nodes":[],"categories_segments":[],"categories_sizes":[],"default_left":[0,0,0,0,0,0,0,0,0,0,0,0,0,0,0,0,0,0,0,0,0,0,0,0,0,0,0,0,0,0,0,0,0,0,0,0,0,0,0],"id":22,"left_children":[1,3,5,7,-1,9,11,13,15,17,-1,19,21,23,25,-1,-1,-1,-1,27,29,-1,-1,31,33,-1,35,-1,-1,37,-1,-1,-1,-1,-1,-1,-1,-1,-1],"loss_changes":[7.477331E1,7.8578125E1,1.15095604E2,7.988182E1,0E0,7.057434E0,7.902811E1,1.1979811E2,4.296051E0,7.481537E-1,0E0,1.1188789E1,3.731289E0,8.0575485E1,1.3355812E1,0E0,0E0,0E0,0E0,1.10874176E-1,1.1092997E1,0E0,0E0,4.9872112E1,2.803032E0,0E0,9.0290215E1,0E0,0E0,1.6364388E1,0E0,0E0,0E0,0E0,0E0,0E0,0E0,0E0,0E0],"parents":[2147483647,0,0,1,1,2,2,3,3,5,5,6,6,7,7,8,8,9,9,11,11,12,12,13,13,14,14,19,19,20,20,23,23,24,24,26,26,29,29],"right_children":[2,4,6,8,-1,10,12,14,16,18,-1,20,22,24,26,-1,-1,-1,-1,28,30,-1,-1,32,34,-1,36,-1,-1,38,-1,-1,-1,-1,-1,-1,-1,-1,-1],"split_conditions":[5E0,1E0,8.7E1,3.5E1,4.0641758E-1,4.4E1,4.6681E4,1.5E1,2E0,1.702E3,2.1651177E-1,6.62E2,3.693E3,2E0,5.4465E4,3.0594847E-1,-1.7311218E-1,-2.6423333E-2,-2.989701E-1,1.488145E6,1E0,1.5832855E-1,-2.9406378E-1,1.4E1,6E0,-3.0092496E-1,5.569E4,3.0000237E-1,9.180869E-2,6.63E2,2.8220114E-1,4.4374545E-3,2.9537085E-1,4.734845E-1,1.5765896E-1,3.4448773E-1,-2.830333E-1,2.7150702E-1,-2.0458294E-1],"split_indices":[20,12,20,9,0,19,9,9,20,16,0,9,16,9,16,0,0,0,0,20,6,0,0,2,9,0,16,0,0,20,0,0,0,0,0,0,0,0,0],"split_type":[0,0,0,0,0,0,0,0,0,0,0,0,0,0,0,0,0,0,0,0,0,0,0,0,0,0,0,0,0,0,0,0,0,0,0,0,0,0,0],"sum_hessian":[3.9686086E3,3.6421077E3,3.2650113E2,3.598202E3,4.390569E1,1.8635515E2,1.4014598E2,3.5158884E3,8.231348E1,1.845904E2,1.7647496E0,9.912342E1,4.102257E1,3.3015466E3,2.143418E2,8.119458E1,1.1188964E0,1.115396E0,1.83475E2,5.7568188E1,4.155523E1,1.114414E0,3.9908157E1,3.263736E3,3.7810596E1,9.464752E1,1.1969428E2,5.624837E1,1.319814E0,2.5981853E1,1.5573377E1,3.2108157E3,5.2920246E1,3.3697292E1,4.1133056E0,2.5432377E1,9.42619E1,9.274352E0,1.6707502E1],"tree_param":{"num_deleted":"0","num_feature":"42","num_nodes":"39","size_leaf_vector":"1"}},{"base_weights":[-2.0471308E-3,1.3338725E-2,-2.9536456E-1,-1.78942E-4,9.418518E-1,-1.7627787E-2,6.7914885E-1,2.9457602E-1,-1.5729268E-1,1.121952E-2,-5.078131E-1,8.605044E-1,-2.6670784E-1,-1.842602E-3,1.1849611E0,-9.681392E-1,2.657881E-1,3.0622545E-1,2.962217E-1,-5.257483E-3,2.9158643E-1,3.8013586E-1,-2.1301143E-1,-2.9783896E-1,1.9826294E-1,2.7363226E-1,-2.4696817E-1,-4.338098E-1,2.2581488E-1],"categories":[],"categories_nodes":[],"categories_segments":[],"categories_sizes":[],"default_left":[0,0,0,0,0,0,0,0,0,0,0,0,0,0,0,0,0,0,0,0,0,0,0,0,0,0,0,0,0],"id":23,"left_children":[1,3,-1,5,7,9,11,-1,-1,13,15,17,-1,19,21,23,25,-1,27,-1,-1,-1,-1,-1,-1,-1,-1,-1,-1],"loss_changes":[5.7628956E1,4.7113365E1,0E0,4.3879097E1,3.6790924E0,5.103996E1,2.7128937E1,0E0,0E0,5.2274624E1,7.169648E1,7.257122E0,0E0,5.152663E1,6.7422295E0,5.716652E0,5.3978874E1,0E0,1.6914682E1,0E0,0E0,0E0,0E0,0E0,0E0,0E0,0E0,0E0,0E0],"parents":[2147483647,0,0,1,1,3,3,4,4,5,5,6,6,9,9,10,10,11,11,13,13,14,14,15,15,16,16,18,18],"right_children":[2,4,-1,6,8,10,12,-1,-1,14,16,18,-1,20,22,24,26,-1,28,-1,-1,-1,-1,-1,-1,-1,-1,-1,-1],"split_conditions":[1.6E1,4.95E2,-2.9536456E-1,2E1,1.5E1,5E0,7.6209E4,2.9457602E-1,-1.5729268E-1,1E0,8.7E1,8.45E2,-2.6670784E-1,3.5E1,5E0,1E0,2.583E3,3.0622545E-1,1.41E2,-5.257483E-3,2.9158643E-1,3.8013586E-1,-2.1301143E-1,-2.9783896E-1,1.9826294E-1,2.7363226E-1,-2.4696817E-1,-4.338098E-1,2.2581488E-1],"split_indices":[32,22,0,17,21,20,9,0,0,12,20,9,0,9,9,19,9,0,19,0,0,0,0,0,0,0,0,0,0],"split_type":[0,0,0,0,0,0,0,0,0,0,0,0,0,0,0,0,0,0,0,0,0,0,0,0,0,0,0,0,0],"sum_hessian":[3.8104214E3,3.7526418E3,5.777951E1,3.6997788E3,5.2863064E1,3.6080776E3,9.170107E1,5.177831E1,1.084754E0,3.4084673E3,1.9961049E2,8.259988E1,9.101201E0,3.3719407E3,3.652661E1,1.2498661E2,7.4623886E1,6.3700912E1,1.8898958E1,3.3194648E3,5.247571E1,3.532636E1,1.2002544E0,1.23507706E2,1.4789E0,4.6932423E1,2.7691463E1,3.4736726E0,1.5425286E1],"tree_param":{"num_deleted":"0","num_feature":"42","num_nodes":"29","size_leaf_vector":"1"}},{"base_weights":[-1.0532631E-3,1.5504763E-1,-7.9602286E-2,9.118371E-2,9.579728E-1,-2.9773995E-1,-1.2181056E-2,5.8523625E-2,2.9332188E-1,2.9355627E-1,5.6522596E-1,7.990394E-1,-6.823124E-2,2.5382126E-2,9.2993295E-1,-1.4690745E-1,2.4910174E-1,3.0437505E-1,-6.927954E-1,-1.5839037E-2,-4.526305E-1,1.8682176E-2,2.7296025E-1,2.9182258E-1,4.5537987E-1,-1.0693687E0,2.3354304E-1,-5.412374E-2,1.2178391E0,-6.143344E-1,2.4438667E-1,7.1555004E-3,-2.5789475E-1,-1.2766819E-1,2.2924757E-1,-3.70504E-1,1.6188952E-1,-6.948182E-2,4.0071946E-2,3.96584E-1,4.8161957E-2,-2.9946655E-1,-1.1032023E-1,2.9336223E-1,-2.8456402E-1],"categories":[],"categories_nodes":[],"categories_segments":[],"categories_sizes":[],"default_left":[0,0,0,0,0,0,0,0,0,0,0,0,0,0,0,0,0,0,0,0,0,0,0,0,0,0,0,0,0,0,0,0,0,0,0,0,0,0,0,0,0,0,0,0,0],"id":24,"left_children":[1,3,5,7,9,-1,11,13,-1,-1,15,17,19,21,23,-1,-1,-1,25,27,29,31,-1,-1,33,35,-1,37,39,41,43,-1,-1,-1,-1,-1,-1,-1,-1,-1,-1,-1,-1,-1,-1],"loss_changes":[4.527702E1,6.329722E1,1.5117613E2,3.3128933E1,1.8104553E-1,0E0,1.04112854E2,3.193105E1,0E0,0E0,2.3336568E0,4.828801E1,4.312301E1,6.305807E0,3.800316E-1,0E0,0E0,0E0,1.151225E1,8.913075E1,2.9098717E1,4.833272E0,0E0,0E0,1.7484657E0,4.8692684E0,0E0,6.0991096E1,6.0400085E0,1.9395538E1,4.387304E1,0E0,0E0,0E0,0E0,0E0,0E0,0E0,0E0,0E0,0E0,0E0,0E0,0E0,0E0],"parents":[2147483647,0,0,1,1,2,2,3,3,4,4,6,6,7,7,10,10,11,11,12,12,13,13,14,14,18,18,19,19,20,20,21,21,24,24,25,25,27,27,28,28,29,29,30,30],"right_children":[2,4,6,8,10,-1,12,14,-1,-1,16,18,20,22,24,-1,-1,-1,26,28,30,32,-1,-1,34,36,-1,38,40,42,44,-1,-1,-1,-1,-1,-1,-1,-1,-1,-1,-1,-1,-1,-1],"split_conditions":[5.02E2,2E0,2.015E3,1.4E1,9.92E2,-2.9773995E-1,4.8526E4,4.95E2,2.9332188E-1,2.9355627E-1,1.5E2,5.83E2,1.5E1,1E0,2E-5,-1.4690745E-1,2.4910174E-1,3.0437505E-1,1.75E2,2E0,7.1E1,1.5E1,2.7296025E-1,2.9182258E-1,2.03E3,1.4971485E9,2.3354304E-1,5.7423E4,5E0,5.4465E4,9.3469E4,7.1555004E-3,-2.5789475E-1,-1.2766819E-1,2.2924757E-1,-3.70504E-1,1.6188952E-1,-6.948182E-2,4.0071946E-2,3.96584E-1,4.8161957E-2,-2.9946655E-1,-1.1032023E-1,2.9336223E-1,-2.8456402E-1],"split_indices":[16,17,16,2,20,0,16,22,0,0,19,20,9,19,24,0,0,0,19,9,9,21,0,0,3,10,0,16,9,16,20,0,0,0,0,0,0,0,0,0,0,0,0,0,0],"split_type":[0,0,0,0,0,0,0,0,0,0,0,0,0,0,0,0,0,0,0,0,0,0,0,0,0,0,0,0,0,0,0,0,0,0,0,0,0,0,0,0,0,0,0,0,0],"sum_hessian":[3.6905886E3,1.235098E3,2.4554907E3,1.1451292E3,8.996893E1,1.6793799E2,2.2875527E3,1.1054703E3,3.9658722E1,8.407856E1,5.890371E0,1.4698383E2,2.1405688E3,1.0659589E3,3.9511494E1,1.0128831E0,4.877488E0,1.2870772E2,1.8276106E1,1.8847285E3,2.5584035E2,1.0589584E3,7.0004563E0,3.5279182E1,4.232309E0,1.4769107E1,3.5069985E0,1.8289276E3,5.5800938E1,2.0775989E2,4.808046E1,1.0537295E3,5.228966E0,1.0002904E0,3.2320185E0,1.3601305E1,1.167802E0,9.3992236E2,8.8900525E2,5.057112E1,5.2298164E0,8.006824E1,1.2769165E2,2.9885393E1,1.8195066E1],"tree_param":{"num_deleted":"0","num_feature":"42","num_nodes":"45","size_leaf_vector":"1"}},{"base_weights":[-6.583408E-5,1.5214365E-2,-8.6583644E-1,2.4645066E-2,-2.910612E-1,-9.69354E-1,2.3832811E-1,1.1917E-2,7.030569E-1,-2.983977E-1,-4.8187193E-2,3.0554654E-2,-4.7106555E-1,3.0530262E-1,-9.374416E-2,2.0724183E-2,2.8305572E-1,-9.540923E-1,3.1290904E-1,-8.179335E-1,2.6442528E-1,1.1891605E-2,-1.4263876E-1,-2.9601073E-1,1.8058124E-1,2.6116347E-1,-1.9948576E-1,-2.735659E-1,1.2867051E-3],"categories":[],"categories_nodes":[],"categories_segments":[],"categories_sizes":[],"default_left":[0,0,0,0,0,0,0,0,0,0,0,0,0,0,0,0,0,0,0,0,0,0,0,0,0,0,0,0,0],"id":25,"left_children":[1,3,5,7,-1,9,-1,11,13,-1,-1,15,17,-1,19,21,-1,23,25,27,-1,-1,-1,-1,-1,-1,-1,-1,-1],"loss_changes":[4.60724E1,3.1827492E1,1.1150814E1,2.9270578E1,0E0,1.0129814E0,0E0,2.998411E1,1.5745262E1,0E0,0E0,2.875919E1,4.7165108E1,0E0,1.3847486E1,2.9802105E1,0E0,4.492317E0,2.6717854E1,8.679538E-1,0E0,0E0,0E0,0E0,0E0,0E0,0E0,0E0,0E0],"parents":[2147483647,0,0,1,1,2,2,3,3,5,5,7,7,8,8,11,11,12,12,14,14,15,15,17,17,18,18,19,19],"right_children":[2,4,6,8,-1,10,-1,12,14,-1,-1,16,18,-1,20,22,-1,24,26,28,-1,-1,-1,-1,-1,-1,-1,-1,-1],"split_conditions":[6.1008E4,1.6E1,1E0,2E1,-2.910612E-1,7.1E1,2.3832811E-1,5E0,8.45E2,-2.983977E-1,-4.8187193E-2,3.5E1,8.7E1,3.0530262E-1,1E0,1.5E1,2.8305572E-1,1E0,3.16E3,2.3722504E9,2.6442528E-1,1.1891605E-2,-1.4263876E-1,-2.9601073E-1,1.8058124E-1,2.6116347E-1,-1.9948576E-1,-2.735659E-1,1.2867051E-3],"split_indices":[16,32,14,17,0,9,0,20,9,0,0,9,20,0,6,9,0,19,9,10,0,0,0,0,0,0,0,0,0],"split_type":[0,0,0,0,0,0,0,0,0,0,0,0,0,0,0,0,0,0,0,0,0,0,0,0,0,0,0,0,0],"sum_hessian":[3.4806475E3,3.4212473E3,5.940001E1,3.3897812E3,3.146607E1,5.63055E1,3.0945072E0,3.3283538E3,6.1427555E1,5.4374245E1,1.931257E0,3.205591E3,1.2276276E2,4.3840027E1,1.7587528E1,3.1724539E3,3.3137142E1,7.582688E1,4.693587E1,1.0185013E1,7.4025154E0,3.0568477E3,1.1560609E2,7.462875E1,1.1981287E0,2.996039E1,1.6975481E1,9.042684E0,1.142329E0],"tree_param":{"num_deleted":"0","num_feature":"42","num_nodes":"29","size_leaf_vector":"1"}},{"base_weights":[-1.1691774E-3,1.0370277E-2,-8.437363E-1,1.6546061E-3,2.9060104E-1,-9.515696E-1,2.226513E-1,-6.771321E-3,9.1299397E-1,-2.9586133E-1,-3.897971E-2,3.7020797E-4,-2.879944E-1,2.8886542E-1,4.046474E-1,-9.782012E-3,6.711323E-1,-9.7450756E-2,2.131359E-1,1.1031933E-3,-1.3437673E-1,2.9766536E-1,-2.2440467E-2],"categories":[],"categories_nodes":[],"categories_segments":[],"categories_sizes":[],"default_left":[0,0,0,0,0,0,0,0,0,0,0,0,0,0,0,0,0,0,0,0,0,0,0],"id":26,"left_children":[1,3,5,7,-1,9,-1,11,13,-1,-1,15,-1,-1,17,19,21,-1,-1,-1,-1,-1,-1],"loss_changes":[3.3091877E1,2.804235E1,8.570084E0,2.5564575E1,0E0,1.1095886E0,0E0,2.2457228E1,3.83873E-1,0E0,0E0,2.2310934E1,0E0,0E0,1.223619E0,1.9034576E1,1.1774002E1,0E0,0E0,0E0,0E0,0E0,0E0],"parents":[2147483647,0,0,1,1,2,2,3,3,5,5,7,7,8,8,11,11,14,14,15,15,16,16],"right_children":[2,4,6,8,-1,10,-1,12,14,-1,-1,16,-1,-1,18,20,22,-1,-1,-1,-1,-1,-1],"split_conditions":[6.1008E4,1.4E1,1E0,4.95E2,2.9060104E-1,7.1E1,2.226513E-1,1.6E1,2E-5,-2.9586133E-1,-3.897971E-2,2E1,-2.879944E-1,2.8886542E-1,4.173E3,5E0,8.45E2,-9.7450756E-2,2.131359E-1,1.1031933E-3,-1.3437673E-1,2.9766536E-1,-2.2440467E-2],"split_indices":[16,2,14,22,0,9,0,32,24,0,0,17,0,0,3,20,9,0,0,0,0,0,0],"split_type":[0,0,0,0,0,0,0,0,0,0,0,0,0,0,0,0,0,0,0,0,0,0,0],"sum_hessian":[3.401646E3,3.3566624E3,4.4983784E1,3.3274014E3,2.9260761E1,4.2494373E1,2.4894097E0,3.2979028E3,2.9498693E1,4.0583355E1,1.911018E0,3.2743706E3,2.3532246E1,2.60481E1,3.4505935E0,3.2265215E3,4.7849117E1,1.0008613E0,2.4497323E0,3.1313213E3,9.520007E1,3.3219635E1,1.4629482E1],"tree_param":{"num_deleted":"0","num_feature":"42","num_nodes":"23","size_leaf_vector":"1"}},{"base_weights":[-5.164745E-4,8.139093E-3,-8.170951E-1,1.5353905E-3,2.8705722E-1,-9.297152E-1,2.0726012E-1,-4.0052817E-3,2.8450054E-1,-2.9289728E-1,-3.1473663E-2,1.3769263E-3,-2.8407982E-1,-5.7354197E-3,6.7354715E-1,-1.1161558E-2,4.616401E-2,3.2441005E-1,-2.3420844E-2],"categories":[],"categories_nodes":[],"categories_segments":[],"categories_sizes":[],"default_left":[0,0,0,0,0,0,0,0,0,0,0,0,0,0,0,0,0,0,0],"id":27,"left_children":[1,3,5,7,-1,9,-1,11,-1,-1,-1,13,-1,15,17,-1,-1,-1,-1],"loss_changes":[2.3757193E1,2.0836473E1,6.6295414E0,1.7336637E1,0E0,1.1750889E0,0E0,1.6677057E1,0E0,0E0,0E0,1.562813E1,0E0,1.625515E1,1.0576019E1,0E0,0E0,0E0,0E0],"parents":[2147483647,0,0,1,1,2,2,3,3,5,5,7,7,11,11,13,13,14,14],"right_children":[2,4,6,8,-1,10,-1,12,-1,-1,-1,14,-1,16,18,-1,-1,-1,-1],"split_conditions":[6.1008E4,2.9E1,1E0,1.69252E5,2.8705722E-1,7.1E1,2.0726012E-1,1.6E1,2.8450054E-1,-2.9289728E-1,-3.1473663E-2,1E0,-2.8407982E-1,5.9513E4,5E0,-1.1161558E-2,4.616401E-2,3.2441005E-1,-2.3420844E-2],"split_indices":[16,3,14,22,0,9,0,32,0,0,0,12,0,16,9,0,0,0,0],"split_type":[0,0,0,0,0,0,0,0,0,0,0,0,0,0,0,0,0,0,0],"sum_hessian":[3.3593145E3,3.3250596E3,3.4254925E1,3.3030696E3,2.1989918E1,3.223124E1,2.0236845E0,3.2848425E3,1.8227129E1,3.0333414E1,1.8978269E0,3.267192E3,1.7650517E1,3.2339644E3,3.3227654E1,2.7020042E3,5.3196014E2,2.1255766E1,1.1971887E1],"tree_param":{"num_deleted":"0","num_feature":"42","num_nodes":"19","size_leaf_vector":"1"}},{"base_weights":[-1.1973186E-4,8.578378E-2,-7.765377E-2,-1.6012798E-3,4.393214E-1,-4.5819676E-1,8.284828E-3,9.424626E-2,-2.9654503E-1,1.3266338E-1,6.879312E-1,8.651179E-1,-5.014728E-1,2.368258E-2,-7.8509337E-1,4.563095E-2,9.3807536E-1,6.901397E-1,-3.2927918E-1,8.9485115E-1,-8.989813E-2,-2.1394859E-1,1.9427189E0,-5.30616E-1,6.626551E-1,4.0683635E-2,-4.4184312E-1,-9.028087E-1,1.9231255E-1,3.05657E-2,2.8378308E-1,2.9019052E-1,4.7260362E-1,2.9820493E-1,-9.370767E-1,-4.2479154E-1,1.4909561E0,8.123941E-1,2.5642955E0,2.7623445E-1,-4.4389388E-1,8.116253E-2,2.5012112E0,-3.6145946E-1,-7.4508065E-1,2.9546365E-1,-1.7045034E-1,3.1264022E-2,8.381537E-1,-2.692862E-1,1.0773642E-1,-2.893236E-1,-2.538118E-2,4.825989E-3,2.592557E-1,-1.455661E-1,2.3585805E-1,1.6849956E-1,-3.601094E-1,-1.488848E-1,2.9276767E-1,5.8977735E-1,1.9187914E-2,4.1744116E-1,1.833834E-1,1.9099592E-1,1.0552104E0,-2.2112656E-1,1.241454E-1,9.133681E-1,3.3681202E-1,7.1299054E-2,-1.4862612E-1,-2.3417063E-1,1.8495445E-1,6.297823E-3,2.9271612E-1,3.6301547E-1,-2.3497128E-1,2.6873797E-1,-2.7208358E-1],"categories":[],"categories_nodes":[],"categories_segments":[],"categories_sizes":[],"default_left":[0,0,0,0,0,0,0,0,0,0,0,0,0,0,0,0,0,0,0,0,0,0,0,0,0,0,0,0,0,0,0,0,0,0,0,0,0,0,0,0,0,0,0,0,0,0,0,0,0,0,0,0,0,0,0,0,0,0,0,0,0,0,0,0,0,0,0,0,0,0,0,0,0,0,0,0,0,0,0,0,0],"id":28,"left_children":[1,3,5,7,9,11,13,15,-1,17,19,21,23,25,27,29,31,33,35,37,39,-1,41,43,45,47,49,51,-1,53,-1,-1,55,-1,57,59,61,63,65,-1,67,-1,69,71,73,-1,-1,75,77,-1,79,-1,-1,-1,-1,-1,-1,-1,-1,-1,-1,-1,-1,-1,-1,-1,-1,-1,-1,-1,-1,-1,-1,-1,-1,-1,-1,-1,-1,-1,-1],"loss_changes":[2.221326E1,4.8879723E1,5.7330875E1,1.2018407E2,2.3814476E1,1.8928894E1,1.7499857E1,4.7466557E1,0E0,3.6700573E1,2.7913986E1,1.9403439E1,1.0982925E1,1.1135475E1,5.1572514E0,1.4837675E1,4.0040207E-1,3.2826218E1,1.4216523E1,1.6732918E1,1.3734644E1,0E0,5.4535675E0,1.0841415E1,3.771221E0,1.0160896E1,1.2515078E1,1.2091885E0,0E0,1.3010551E1,0E0,0E0,2.0873866E0,0E0,4.88256E0,7.9957895E0,2.6646643E0,1.448954E1,8.7282715E0,0E0,7.4116244E0,0E0,1.7665291E-1,1.4015484E1,6.961212E0,0E0,0E0,1.2991582E1,1.0470657E1,0E0,1.9498566E1,0E0,0E0,0E0,0E0,0E0,0E0,0E0,0E0,0E0,0E0,0E0,0E0,0E0,0E0,0E0,0E0,0E0,0E0,0E0,0E0,0E0,0E0,0E0,0E0,0E0,0E0,0E0,0E0,0E0,0E0],"parents":[2147483647,0,0,1,1,2,2,3,3,4,4,5,5,6,6,7,7,9,9,10,10,11,11,12,12,13,13,14,14,15,15,16,16,17,17,18,18,19,19,20,20,22,22,23,23,24,24,25,25,26,26,27,27,29,29,32,32,34,34,35,35,36,36,37,37,38,38,40,40,42,42,43,43,44,44,47,47,48,48,50,50],"right_children":[2,4,6,8,10,12,14,16,-1,18,20,22,24,26,28,30,32,34,36,38,40,-1,42,44,46,48,50,52,-1,54,-1,-1,56,-1,58,60,62,64,66,-1,68,-1,70,72,74,-1,-1,76,78,-1,80,-1,-1,-1,-1,-1,-1,-1,-1,-1,-1,-1,-1,-1,-1,-1,-1,-1,-1,-1,-1,-1,-1,-1,-1,-1,-1,-1,-1,-1,-1],"split_conditions":[5.0801E4,2.015E3,5.3427E4,5.02E2,1.5986089E9,1.83E3,6.1008E4,2E0,-2.9654503E-1,4.8526E4,5.075E4,5.2085E4,2E1,5E0,1E0,1.4E1,9.92E2,6.62E2,6.295E4,4.9019E4,4.8526E4,-2.1394859E-1,1.5475163E9,3.6441E4,1.6E1,2E0,1.5E1,7.1E1,1.9231255E-1,4.95E2,2.8378308E-1,2.9019052E-1,1.4195E4,2.9820493E-1,1.1126034E9,1.5E1,1.2799965E9,1.1907E4,3.3001748E9,2.7623445E-1,6.2071E4,8.116253E-2,5.2748E4,5.1263E4,1E0,2.9546365E-1,-1.7045034E-1,3.5E1,5E0,-2.692862E-1,9.3469E4,-2.893236E-1,-2.538118E-2,4.825989E-3,2.592557E-1,-1.455661E-1,2.3585805E-1,1.6849956E-1,-3.601094E-1,-1.488848E-1,2.9276767E-1,5.8977735E-1,1.9187914E-2,4.1744116E-1,1.833834E-1,1.9099592E-1,1.0552104E0,-2.2112656E-1,1.241454E-1,9.133681E-1,3.3681202E-1,7.1299054E-2,-1.4862612E-1,-2.3417063E-1,1.8495445E-1,6.297823E-3,2.9271612E-1,3.6301547E-1,-2.3497128E-1,2.6873797E-1,-2.7208358E-1],"split_indices":[16,16,16,16,10,11,16,17,0,16,11,16,17,20,14,2,20,9,11,11,16,0,10,11,32,20,20,9,0,22,0,0,11,0,10,20,10,11,10,0,11,0,16,16,12,0,0,9,9,0,20,0,0,0,0,0,0,0,0,0,0,0,0,0,0,0,0,0,0,0,0,0,0,0,0,0,0,0,0,0,0],"split_type":[0,0,0,0,0,0,0,0,0,0,0,0,0,0,0,0,0,0,0,0,0,0,0,0,0,0,0,0,0,0,0,0,0,0,0,0,0,0,0,0,0,0,0,0,0,0,0,0,0,0,0,0,0,0,0,0,0,0,0,0,0,0,0,0,0,0,0,0,0,0,0,0,0,0,0,0,0,0,0,0,0],"sum_hessian":[3.3331008E3,1.5811576E3,1.7519431E3,1.2685912E3,3.125664E2,3.2195758E2,1.4299855E3,1.1571149E3,1.1147632E2,1.4063185E2,1.7193454E2,9.594094E0,3.123635E2,1.4037126E3,2.6272873E1,1.0950785E3,6.2036404E1,6.350249E1,7.712936E1,1.3568805E2,3.6246502E1,4.0299416E0,5.564153E0,3.0526553E2,7.0979385E0,1.3551355E3,4.857711E1,2.4608597E1,1.664277E0,1.0780726E3,1.7005823E1,5.735693E1,4.6794753E0,5.383764E1,9.664849E0,7.401237E1,3.1169887E0,1.3071825E2,4.969802E0,8.986989E0,2.7259514E1,1.7647487E0,3.7994044E0,1.7216096E2,1.3310458E2,5.783632E0,1.314307E0,1.3403428E3,1.4792752E1,2.6208544E1,2.2368565E1,2.2719347E1,1.8892493E0,1.0606693E3,1.7403372E1,1.0191848E0,3.6602905E0,1.2748144E0,8.390035E0,7.103254E1,2.9798253E0,2.055245E0,1.0617439E0,3.2170506E1,9.854774E1,2.1960888E0,2.773713E0,2.0419931E1,6.8395815E0,1.8583312E0,1.9410732E0,3.1318575E1,1.4084239E2,1.301394E2,2.9651713E0,1.3269342E3,1.34086275E1,1.2239158E1,2.5535946E0,1.2656224E1,9.712341E0],"tree_param":{"num_deleted":"0","num_feature":"42","num_nodes":"81","size_leaf_vector":"1"}},{"base_weights":[-8.6472975E-4,6.578038E-2,-5.730625E-2,-1.4637841E-3,3.8297293E-1,-3.2634103E-1,5.3751282E-3,7.120443E-2,-2.9404727E-1,8.089527E-1,1.8850233E-1,-1.5315945E-1,-5.876971E-1,1.6903076E-2,-7.4715084E-1,3.373776E-2,9.178424E-1,3.001034E-1,-5.6880456E-1,1.1834053E0,1.0574488E-1,-2.1103093E-1,1.0287083E0,-6.2491375E-1,6.307141E-1,-6.885362E-2,8.4694296E-2,-8.699965E-1,1.7800775E-1,2.2197442E-2,2.786106E-1,2.866978E-1,4.091202E-1,1.9359352E-1,-8.971167E-1,3.6646664E-1,2.1843524E0,-2.7300858E-1,2.9277614E-1,-4.3632734E-1,1.6749798E-1,7.311714E-1,2.1927668E-1,-6.5416974E-1,1.5275444E-1,2.1483621E-1,6.220518E-2,2.3811787E-1,-1.3723898E-1,1.1906504E-1,-7.4470204E-1,-2.8495014E-1,-2.0448787E-2,3.7391062E-3,2.7416196E-1,-1.4957538E-1,2.2647396E-1,-3.454342E-1,5.8897503E-2,-9.343747E-2,3.9861688E-1,1.2837744E-1,7.66057E-1,-1.16434E-1,3.0612403E-1,1.3426255E-1,-1.0041733E-1,1.238314E-1,-1.4832324E-1,3.451226E-1,-3.0882537E-2,-1.1489165E-1,4.2843306E-1,-2.0597656E-1,9.403841E-2,1.7201512E-1,-1.159058E-1,5.6856173E-1,-4.587596E-2,6.5480426E-2,3.900718E-3,-2.866323E-1,-1.0374621E-1],"categories":[],"categories_nodes":[],"categories_segments":[],"categories_sizes":[],"default_left":[0,0,0,0,0,0,0,0,0,0,0,0,0,0,0,0,0,0,0,0,0,0,0,0,0,0,0,0,0,0,0,0,0,0,0,0,0,0,0,0,0,0,0,0,0,0,0,0,0,0,0,0,0,0,0,0,0,0,0,0,0,0,0,0,0,0,0,0,0,0,0,0,0,0,0,0,0,0,0,0,0,0,0],"id":29,"left_children":[1,3,5,7,9,11,13,15,-1,17,19,21,23,25,27,29,31,-1,33,35,37,39,41,43,45,47,49,51,-1,53,-1,-1,55,-1,57,59,61,63,65,67,69,-1,71,73,-1,-1,-1,75,77,79,81,-1,-1,-1,-1,-1,-1,-1,-1,-1,-1,-1,-1,-1,-1,-1,-1,-1,-1,-1,-1,-1,-1,-1,-1,-1,-1,-1,-1,-1,-1,-1,-1],"loss_changes":[1.2090986E1,3.1439072E1,2.9351011E1,8.663221E1,2.120565E1,1.4795979E1,1.2266351E1,3.593839E1,0E0,2.1797913E1,1.4556601E1,1.3839104E1,6.321747E0,8.099374E0,4.029422E0,1.12053175E1,5.3276825E-1,0E0,4.7471924E0,1.0316622E1,1.1819348E1,1.6335821E1,1.0259213E1,4.5584335E0,9.604454E-3,1.2947176E1,2.2266678E1,1.2122879E0,0E0,9.311195E0,0E0,0E0,1.9680502E0,0E0,2.631473E0,6.080926E0,2.738186E0,8.628983E0,1.0970491E1,6.1135006E0,1.9223833E1,0E0,5.723917E0,4.123375E0,0E0,0E0,0E0,2.3763927E1,1.6344677E1,7.866271E0,2.2834473E0,0E0,0E0,0E0,0E0,0E0,0E0,0E0,0E0,0E0,0E0,0E0,0E0,0E0,0E0,0E0,0E0,0E0,0E0,0E0,0E0,0E0,0E0,0E0,0E0,0E0,0E0,0E0,0E0,0E0,0E0,0E0,0E0],"parents":[2147483647,0,0,1,1,2,2,3,3,4,4,5,5,6,6,7,7,9,9,10,10,11,11,12,12,13,13,14,14,15,15,16,16,18,18,19,19,20,20,21,21,22,22,23,23,24,24,25,25,26,26,27,27,29,29,32,32,34,34,35,35,36,36,37,37,38,38,39,39,40,40,42,42,43,43,47,47,48,48,49,49,50,50],"right_children":[2,4,6,8,10,12,14,16,-1,18,20,22,24,26,28,30,32,-1,34,36,38,40,42,44,46,48,50,52,-1,54,-1,-1,56,-1,58,60,62,64,66,68,70,-1,72,74,-1,-1,-1,76,78,80,82,-1,-1,-1,-1,-1,-1,-1,-1,-1,-1,-1,-1,-1,-1,-1,-1,-1,-1,-1,-1,-1,-1,-1,-1,-1,-1,-1,-1,-1,-1,-1,-1],"split_conditions":[5.0474E4,2.015E3,5.3427E4,5.02E2,4.8526E4,3.6441E4,6.1008E4,2E0,-2.9404727E-1,5.83E2,3.795E3,3.4988E4,2E1,5.8573E4,1E0,1.4E1,9.92E2,3.001034E-1,4.802E3,2.687E3,1.5225654E9,2.7323282E9,5.1101E4,1E0,2.3012262E9,1E0,5E0,7.1E1,1.7800775E-1,1.69252E5,2.786106E-1,2.866978E-1,3.962E3,1.9359352E-1,6.285E3,4.9874E4,4.9353E4,6.295E4,5.075E4,1.83E3,3.01653E9,7.311714E-1,3.613E4,6.4663E4,1.5275444E-1,2.1483621E-1,6.220518E-2,5.605E4,3.16E2,5.9937E4,7.1E1,-2.8495014E-1,-2.0448787E-2,3.7391062E-3,2.7416196E-1,-1.4957538E-1,2.2647396E-1,-3.454342E-1,5.8897503E-2,-9.343747E-2,3.9861688E-1,1.2837744E-1,7.66057E-1,-1.16434E-1,3.0612403E-1,1.3426255E-1,-1.0041733E-1,1.238314E-1,-1.4832324E-1,3.451226E-1,-3.0882537E-2,-1.1489165E-1,4.2843306E-1,-2.0597656E-1,9.403841E-2,1.7201512E-1,-1.159058E-1,5.6856173E-1,-4.587596E-2,6.5480426E-2,3.900718E-3,-2.866323E-1,-1.0374621E-1],"split_indices":[16,16,16,16,16,11,16,17,0,20,11,11,17,16,14,2,20,0,16,11,10,10,16,12,10,15,9,9,0,22,0,0,20,0,16,16,16,11,11,11,10,0,11,11,0,0,0,16,11,16,9,0,0,0,0,0,0,0,0,0,0,0,0,0,0,0,0,0,0,0,0,0,0,0,0,0,0,0,0,0,0,0,0],"split_type":[0,0,0,0,0,0,0,0,0,0,0,0,0,0,0,0,0,0,0,0,0,0,0,0,0,0,0,0,0,0,0,0,0,0,0,0,0,0,0,0,0,0,0,0,0,0,0,0,0,0,0,0,0,0,0,0,0,0,0,0,0,0,0,0,0,0,0,0,0,0,0,0,0,0,0,0,0,0,0,0,0,0,0],"sum_hessian":[3.2123599E3,1.4729556E3,1.7394043E3,1.2161332E3,2.5682236E2,3.2788455E2,1.4115198E3,1.1329395E3,8.319374E1,7.9506615E1,1.7731573E2,1.9816266E2,1.297219E2,1.3911857E3,2.033404E1,1.0859235E3,4.701603E1,7.0049576E1,9.457044E0,1.2595385E1,1.6472034E2,1.8969545E2,8.467207E0,1.2634962E2,3.3722684E0,6.1419995E2,7.769858E2,1.894857E1,1.3854693E0,1.0731107E3,1.2812669E1,4.294507E1,4.070959E0,1.8074503E0,7.6495934E0,7.6873517E0,4.9080334E0,5.4299587E1,1.1042076E2,1.1882147E2,7.087398E1,2.3561363E0,6.11107E0,1.2358471E2,2.7649066E0,2.230749E0,1.1415195E0,1.1144742E2,5.027525E2,7.4689056E2,3.0095203E1,1.706487E1,1.8836987E0,1.0625259E3,1.058482E1,1.0011327E0,3.0698266E0,6.163043E0,1.48655E0,4.9067755E0,2.7805765E0,1.2274187E0,3.6806145E0,5.050496E1,3.7946255E0,8.880486E1,2.1615892E1,7.2167096E0,1.1160476E2,1.4590632E1,5.6283348E1,4.534928E0,1.5761424E0,1.19859474E2,3.7252388E0,7.2568596E1,3.887883E1,2.9315007E0,4.99821E2,3.853785E2,3.6151205E2,1.8778666E1,1.1316537E1],"tree_param":{"num_deleted":"0","num_feature":"42","num_nodes":"83","size_leaf_vector":"1"}},{"base_weights":[-1.6349759E-3,1.9203416E-3,-2.7529708E-1,-5.0179115E-3,6.406194E-1,-1.1868617E-3,-7.816429E-1,7.994727E-1,-5.2684844E-1,-6.283712E-3,5.9936535E-1,-2.7970788E-1,1.6452372E-1,3.1321123E-1,2.9586375E-1,2.5563633E-2,-2.16673E-1,-9.525047E-3,2.721621E-1,3.0853975E-1,-1.24926634E-1,7.132958E-1,-4.912483E-1,-6.871005E-4,-1.1097991E-1,-2.6676083E-1,1.9696023E-1,2.4441501E-1,6.434671E-2,1.5595722E-1,-3.2376182E-1],"categories":[],"categories_nodes":[],"categories_segments":[],"categories_sizes":[],"default_left":[0,0,0,0,0,0,0,0,0,0,0,0,0,0,0,0,0,0,0,0,0,0,0,0,0,0,0,0,0,0,0],"id":30,"left_children":[1,3,-1,5,7,9,11,13,15,17,19,-1,-1,21,-1,-1,-1,23,-1,-1,25,27,29,-1,-1,-1,-1,-1,-1,-1,-1],"loss_changes":[1.0169501E1,1.3789381E1,0E0,9.158618E0,6.622758E0,9.383755E0,3.5403337E0,2.3999538E0,6.126089E-1,9.008772E0,8.1467E0,0E0,0E0,3.4861693E0,0E0,0E0,0E0,7.8993874E0,0E0,0E0,6.848859E0,1.7506075E-1,2.8368676E0,0E0,0E0,0E0,0E0,0E0,0E0,0E0,0E0],"parents":[2147483647,0,0,1,1,3,3,4,4,5,5,6,6,7,7,8,8,9,9,10,10,13,13,17,17,20,20,21,21,22,22],"right_children":[2,4,-1,6,8,10,12,14,16,18,20,-1,-1,22,-1,-1,-1,24,-1,-1,26,28,30,-1,-1,-1,-1,-1,-1,-1,-1],"split_conditions":[1.6E1,2E1,-2.7529708E-1,6.1008E4,9.3469E4,1E0,1E0,4.427E4,2.5269E4,2.9E1,5E0,-2.7970788E-1,1.6452372E-1,5.9E3,2.9586375E-1,2.5563633E-2,-2.16673E-1,5E0,2.721621E-1,3.0853975E-1,6E0,5.02E2,7.3E2,-6.871005E-4,-1.1097991E-1,-2.6676083E-1,1.9696023E-1,2.4441501E-1,6.434671E-2,1.5595722E-1,-3.2376182E-1],"split_indices":[32,17,0,16,20,12,14,16,9,3,9,0,0,16,0,0,0,20,0,0,20,16,9,0,0,0,0,0,0,0,0],"split_type":[0,0,0,0,0,0,0,0,0,0,0,0,0,0,0,0,0,0,0,0,0,0,0,0,0,0,0,0,0,0,0],"sum_hessian":[3.121052E3,3.1099792E3,1.107273E1,3.0775398E3,3.2439487E1,3.0634297E3,1.41102085E1,2.883167E1,3.607818E0,3.0386306E3,2.4799137E1,1.2942609E1,1.167599E0,8.742881E0,2.0088789E1,1.0095072E0,2.5983107E0,3.0288728E3,9.757761E0,1.530931E1,9.489827E0,5.9146504E0,2.8282301E0,2.9702551E3,5.8617577E1,4.7279625E0,4.761865E0,4.388931E0,1.5257195E0,1.082496E0,1.745734E0],"tree_param":{"num_deleted":"0","num_feature":"42","num_nodes":"31","size_leaf_vector":"1"}},{"base_weights":[-8.69098E-4,-3.7046254E-3,2.7991703E-1,8.608798E-3,-2.0553823E-1,-4.746845E-3,1.1744179E0,-4.0858027E-1,4.0097255E-1,-9.325603E-3,7.759168E-1,1.0412055E-1,3.5693002E-1,-1.0003984E0,4.560616E-3,6.930592E-1,-2.6590016E-1,-4.6055406E-2,6.841664E-2,9.307914E-1,-1.7229961E-1,-1.1449723E-1,-3.0399773E-1,8.5070443E-1,-2.9351255E-1,2.8642574E-1,3.057194E-1,1.249685E-2,-8.3558485E-2,3.179795E-2,-5.0496016E-2,9.115897E-2,2.9903534E-1,3.337222E-1,-1.9220957E-1,-9.6658565E-2,2.6109535E-1],"categories":[],"categories_nodes":[],"categories_segments":[],"categories_sizes":[],"default_left":[0,0,0,0,0,0,0,0,0,0,0,0,0,0,0,0,0,0,0,0,0,0,0,0,0,0,0,0,0,0,0,0,0,0,0,0,0],"id":31,"left_children":[1,3,-1,5,7,9,11,13,15,17,19,-1,-1,21,23,25,-1,27,29,31,-1,-1,-1,33,-1,-1,35,-1,-1,-1,-1,-1,-1,-1,-1,-1,-1],"loss_changes":[8.211133E0,7.683688E0,0E0,4.5380314E1,2.20559E1,1.0309593E1,6.275177E-3,3.2689995E1,1.756879E1,8.187998E0,4.0515604E0,0E0,0E0,5.2871704E-2,6.713547E1,3.4903564E0,0E0,3.97175E1,8.20298E0,3.3711338E-1,0E0,0E0,0E0,1.764244E1,0E0,0E0,6.1356487E0,0E0,0E0,0E0,0E0,0E0,0E0,0E0,0E0,0E0,0E0],"parents":[2147483647,0,0,1,1,3,3,4,4,5,5,6,6,7,7,8,8,9,9,10,10,13,13,14,14,15,15,17,17,18,18,19,19,23,23,26,26],"right_children":[2,4,-1,6,8,10,12,14,16,18,20,-1,-1,22,24,26,-1,28,30,32,-1,-1,-1,34,-1,-1,36,-1,-1,-1,-1,-1,-1,-1,-1,-1,-1],"split_conditions":[1.448E3,5E0,2.7991703E-1,2E0,7.1E1,2E1,3.9068E4,5.4465E4,9.3469E4,5.6861E4,1E0,1.0412055E-1,3.5693002E-1,6E0,5.605E4,6.63E2,-2.6590016E-1,5.1101E4,3.6734095E9,1.702E3,-1.7229961E-1,-1.1449723E-1,-3.0399773E-1,5.5102E4,-2.9351255E-1,2.8642574E-1,4.427E4,1.249685E-2,-8.3558485E-2,3.179795E-2,-5.0496016E-2,9.115897E-2,2.9903534E-1,3.337222E-1,-1.9220957E-1,-9.6658565E-2,2.6109535E-1],"split_indices":[19,9,0,9,9,17,16,16,20,16,30,0,0,9,16,20,0,16,10,16,0,0,0,11,0,0,16,0,0,0,0,0,0,0,0,0,0],"split_type":[0,0,0,0,0,0,0,0,0,0,0,0,0,0,0,0,0,0,0,0,0,0,0,0,0,0,0,0,0,0,0,0,0,0,0,0,0],"sum_hessian":[3.0983743E3,3.0899888E3,8.385597E0,2.913217E3,1.7677159E2,2.8812056E3,3.2011494E1,1.3268042E2,4.4091175E1,2.8653875E3,1.5818051E1,1.0131203E0,3.0998373E1,5.396086E1,7.871956E1,3.631338E1,7.777796E0,1.9462686E3,9.1911896E2,1.4469088E1,1.3489636E0,1.7290039E0,5.2231857E1,4.2375687E1,3.6343876E1,2.0797407E1,1.5515972E1,1.4137021E3,5.3256635E2,7.9369104E2,1.2542796E2,1.9117826E0,1.2557305E1,3.626605E1,6.1096396E0,7.549349E0,7.9666233E0],"tree_param":{"num_deleted":"0","num_feature":"42","num_nodes":"37","size_leaf_vector":"1"}},{"base_weights":[-1.8293874E-3,-4.462242E-3,2.6653484E-1,-6.992242E-3,2.6538175E-1,-4.528594E-3,-2.647099E-1,-8.678272E-3,5.549773E-1,-5.8597387E-3,-7.447317E-1,8.510478E-1,-2.386775E-3,-3.1115825E-3,1.4177735E-1,-2.706795E-1,5.0313827E-2,2.7273557E-1,4.0837724E-2,-1.7569342E-1,2.2858334E-1],"categories":[],"categories_nodes":[],"categories_segments":[],"categories_sizes":[],"default_left":[0,0,0,0,0,0,0,0,0,0,0,0,0,0,0,0,0,0,0,0,0],"id":32,"left_children":[1,3,-1,5,-1,7,-1,9,11,13,15,17,19,-1,-1,-1,-1,-1,-1,-1,-1],"loss_changes":[7.1172695E0,6.814416E0,0E0,6.507185E0,0E0,6.997292E0,0E0,6.199729E0,3.6634388E0,6.4385715E0,1.7899337E0,4.779482E-1,4.322261E0,0E0,0E0,0E0,0E0,0E0,0E0,0E0,0E0],"parents":[2147483647,0,0,1,1,3,3,5,5,7,7,8,8,9,9,10,10,11,11,12,12],"right_children":[2,4,-1,6,-1,8,-1,10,12,14,16,18,20,-1,-1,-1,-1,-1,-1,-1,-1],"split_conditions":[1.69252E5,1.4E1,2.6653484E-1,1.6E1,2.6538175E-1,2E1,-2.647099E-1,6.1008E4,8.45E2,7.1E1,6.5303E4,3.8995087E9,1E0,-3.1115825E-3,1.4177735E-1,-2.706795E-1,5.0313827E-2,2.7273557E-1,4.0837724E-2,-1.7569342E-1,2.2858334E-1],"split_indices":[22,2,0,32,0,17,0,16,9,9,16,10,6,0,0,0,0,0,0,0,0],"split_type":[0,0,0,0,0,0,0,0,0,0,0,0,0,0,0,0,0,0,0,0,0],"sum_hessian":[3.0337192E3,3.025766E3,7.9532237E0,3.0181694E3,7.5965967E0,3.0107014E3,7.468127E0,2.9895134E3,2.1187784E1,2.9791138E3,1.0399813E1,1.3493274E1,7.6945105E0,2.9522498E3,2.6863926E1,8.878158E0,1.5216552E0,1.2228373E1,1.2649013E0,4.4968014E0,3.197709E0],"tree_param":{"num_deleted":"0","num_feature":"42","num_nodes":"21","size_leaf_vector":"1"}},{"base_weights":[-9.2639646E-4,9.973017E-3,-2.0718399E-1,-1.0946389E-4,3.3122486E-1,-3.1472202E-2,-7.405992E-1,-2.8735276E-3,2.6374096E-1,-4.593312E-1,4.8531243E-1,-2.9023638E-1,-1.10903844E-1,3.4233318E-3,-2.786979E-1,-9.826825E-1,4.7376508E-1,6.104448E-1,-5.1521856E-1,2.4055643E-1,-7.471381E-1,-3.6747422E-4,2.8275105E-1,-7.4061275E-2,-3.0044442E-1,2.7099073E-1,1.2729298E-1,-2.1041925E-1,7.2889316E-1,-2.4553597E-1,1.2301416E-1,-3.4704205E-2,-2.5025943E-1,-7.6329027E-4,2.5774872E-1,-1.161657E-1,2.7166343E-1,1.2675092E0,1.5661454E-1],"categories":[],"categories_nodes":[],"categories_segments":[],"categories_sizes":[],"default_left":[0,0,0,0,0,0,0,0,0,0,0,0,0,0,0,0,0,0,0,0,0,0,0,0,0,0,0,0,0,0,0,0,0,0,0,0,0,0,0],"id":33,"left_children":[1,3,5,7,-1,9,11,13,-1,15,17,-1,19,21,-1,23,25,27,29,-1,31,33,-1,-1,-1,-1,35,-1,37,-1,-1,-1,-1,-1,-1,-1,-1,-1,-1],"loss_changes":[6.7905393E0,3.1649696E1,1.4186436E1,6.9139414E0,0E0,2.5669573E1,5.2526817E0,1.654141E1,0E0,3.1461956E1,6.9014816E0,0E0,7.026032E0,1.0031318E1,0E0,3.1976318E-1,3.379798E0,7.848749E0,2.1286955E0,0E0,2.904668E-1,5.2550797E0,0E0,0E0,0E0,0E0,6.021503E0,0E0,2.94694E1,0E0,0E0,0E0,0E0,0E0,0E0,0E0,0E0,0E0,0E0],"parents":[2147483647,0,0,1,1,2,2,3,3,5,5,6,6,7,7,9,9,10,10,12,12,13,13,15,15,16,16,17,17,18,18,20,20,21,21,26,26,28,28],"right_children":[2,4,6,8,-1,10,12,14,-1,16,18,-1,20,22,-1,24,26,28,30,-1,32,34,-1,-1,-1,-1,36,-1,38,-1,-1,-1,-1,-1,-1,-1,-1,-1,-1],"split_conditions":[5E0,2E0,5.605E4,1.5E1,3.3122486E-1,5.4465E4,7.1E1,6E0,2.6374096E-1,7.1E1,5.5102E4,-2.9023638E-1,4.89E2,1E0,-2.786979E-1,6E0,6.82E2,4.391E3,3.5E1,2.4055643E-1,5.25681E5,1.69252E5,2.8275105E-1,-7.4061275E-2,-3.0044442E-1,2.7099073E-1,4.427E4,-2.1041925E-1,5.88E3,-2.4553597E-1,1.2301416E-1,-3.4704205E-2,-2.5025943E-1,-7.6329027E-4,2.5774872E-1,-1.161657E-1,2.7166343E-1,1.2675092E0,1.5661454E-1],"split_indices":[9,9,16,20,0,16,9,20,0,9,11,0,20,13,0,9,20,11,9,0,20,22,0,0,0,0,16,0,11,0,0,0,0,0,0,0,0,0,0],"split_type":[0,0,0,0,0,0,0,0,0,0,0,0,0,0,0,0,0,0,0,0,0,0,0,0,0,0,0,0,0,0,0,0,0,0,0,0,0,0,0],"sum_hessian":[3.018667E3,2.8680598E3,1.5060722E2,2.842862E3,2.5197744E1,1.1408544E2,3.6521774E1,2.8349465E3,7.915419E0,6.2473354E1,5.161209E1,2.6454746E1,1.0067028E1,2.816791E3,1.8155584E1,3.99905E1,2.2482853E1,4.6221264E1,5.3908267E0,4.028016E0,6.0390124E0,2.8064617E3,1.0329299E1,1.3483047E0,3.8642197E1,9.320571E0,1.3162282E1,3.4202037E0,4.280106E1,4.147137E0,1.2436893E0,1.0138887E0,5.0251236E0,2.8003665E3,6.095108E0,8.2262535E0,4.936029E0,1.3057009E0,4.1495358E1],"tree_param":{"num_deleted":"0","num_feature":"42","num_nodes":"39","size_leaf_vector":"1"}},{"base_weights":[-1.010657E-3,-3.121909E-3,2.6694828E-1,2.6084012E-3,-3.2703352E-1,-1.8499193E-3,8.702279E-1,-2.8549895E-1,2.4587834E-1,-5.3121466E-3,2.763158E-1,3.212029E-1,-1.8388022E-1,5.147352E-1,-2.2908762E-1,4.445261E-3,-3.1589547E-1,2.7394933E-1,1.5282977E-1,2.900498E-4,2.3693345E-1,-2.8750813E-1,-3.136583E-2,-1.513759E-1,1.8035397E-1],"categories":[],"categories_nodes":[],"categories_segments":[],"categories_sizes":[],"default_left":[0,0,0,0,0,0,0,0,0,0,0,0,0,0,0,0,0,0,0,0,0,0,0,0,0],"id":34,"left_children":[1,3,-1,5,7,9,11,-1,13,15,-1,-1,-1,17,-1,19,21,-1,23,-1,-1,-1,-1,-1,-1],"loss_changes":[5.6234903E0,5.536575E0,0E0,1.1341301E1,1.8789886E1,9.327442E0,5.112502E0,0E0,7.9493675E0,8.813074E0,0E0,0E0,0E0,3.1167345E0,0E0,7.702954E0,1.1927225E1,0E0,4.145384E0,0E0,0E0,0E0,0E0,0E0,0E0],"parents":[2147483647,0,0,1,1,3,3,4,4,5,5,6,6,8,8,9,9,13,13,15,15,16,16,18,18],"right_children":[2,4,-1,6,8,10,12,-1,14,16,-1,-1,-1,18,-1,20,22,-1,24,-1,-1,-1,-1,-1,-1],"split_conditions":[1.448E3,5E0,2.6694828E-1,2E0,8.7E1,3.5E1,5E0,-2.8549895E-1,9.3469E4,1.5E1,2.763158E-1,3.212029E-1,-1.8388022E-1,6.62E2,-2.2908762E-1,2E0,5.4465E4,2.7394933E-1,4.337E3,2.900498E-4,2.3693345E-1,-2.8750813E-1,-3.136583E-2,-1.513759E-1,1.8035397E-1],"split_indices":[19,20,0,20,20,9,9,0,